{"learner":{"attributes":{"scikit_learn":"{\"_estimator_type\": \"regressor\"}"},"feature_names":["month","is_winter","is_spring","is_summer","is_autumn","is_start_of_year","group_id"],"feature_types":["int","int","int","int","int","int","int"],"gradient_booster":{"model":{"gbtree_model_param":{"num_parallel_tree":"1","num_trees":"50"},"iteration_indptr":[0,1,2,3,4,5,6,7,8,9,10,11,12,13,14,15,16,17,18,19,20,21,22,23,24,25,26,27,28,29,30,31,32,33,34,35,36,37,38,39,40,41,42,43,44,45,46,47,48,49,50],"tree_info":[0,0,0,0,0,0,0,0,0,0,0,0,0,0,0,0,0,0,0,0,0,0,0,0,0,0,0,0,0,0,0,0,0,0,0,0,0,0,0,0,0,0,0,0,0,0,0,0,0,0],"trees":[{"base_weights":[-2.3323556E-8,1.9264411E-2,-1.3485105E-1,5.8610704E-2,-2.1833193E-2,-3.1693846E-3,-1.7058274E-2,8.726467E-3,-4.6888096E-3,-7.268175E-3,-2.4577646E-4],"categories":[],"categories_nodes":[],"categories_segments":[],"categories_sizes":[],"default_left":[0,0,0,0,0,0,0,0,0,0,0],"id":0,"left_children":[1,3,5,7,9,-1,-1,-1,-1,-1,-1],"loss_changes":[6.234789E-2,3.5237465E-2,5.6515224E-3,3.7344217E-2,1.0658702E-2,0E0,0E0,0E0,0E0,0E0,0E0],"parents":[2147483647,0,0,1,1,2,2,3,3,4,4],"right_children":[2,4,6,8,10,-1,-1,-1,-1,-1,-1],"split_conditions":[1.2E1,3E0,3E0,1E0,3E0,-3.1693846E-3,-1.7058274E-2,8.726467E-3,-4.6888096E-3,-7.268175E-3,-2.4577646E-4],"split_indices":[0,6,6,2,0,0,0,0,0,0,0],"split_type":[0,0,0,0,0,0,0,0,0,0,0],"sum_hessian":[2.2E1,2E1,2E0,1E1,1E1,1E0,1E0,8E0,2E0,2E0,8E0],"tree_param":{"num_deleted":"0","num_feature":"7","num_nodes":"11","size_leaf_vector":"1"}},{"base_weights":[-1.0306421E-3,1.7172419E-2,-1.2810852E-1,5.3116683E-2,-2.0332975E-2,-3.0109168E-3,-1.6205361E-2,7.95078E-3,-4.376223E-3,-6.7836284E-3,-2.23932E-4],"categories":[],"categories_nodes":[],"categories_segments":[],"categories_sizes":[],"default_left":[0,0,0,0,0,0,0,0,0,0,0],"id":1,"left_children":[1,3,5,7,9,-1,-1,-1,-1,-1,-1],"loss_changes":[5.540368E-2,2.9390201E-2,5.100496E-3,3.160361E-2,9.302687E-3,0E0,0E0,0E0,0E0,0E0,0E0],"parents":[2147483647,0,0,1,1,2,2,3,3,4,4],"right_children":[2,4,6,8,10,-1,-1,-1,-1,-1,-1],"split_conditions":[1.2E1,3E0,3E0,1E0,3E0,-3.0109168E-3,-1.6205361E-2,7.95078E-3,-4.376223E-3,-6.7836284E-3,-2.23932E-4],"split_indices":[0,6,6,2,0,0,0,0,0,0,0],"split_type":[0,0,0,0,0,0,0,0,0,0,0],"sum_hessian":[2.2E1,2E1,2E0,1E1,1E1,1E0,1E0,8E0,2E0,2E0,8E0],"tree_param":{"num_deleted":"0","num_feature":"7","num_nodes":"11","size_leaf_vector":"1"}},{"base_weights":[-1.9123295E-3,1.5291699E-2,-1.2170309E-1,4.8129976E-2,-1.893673E-2,-2.8603703E-3,-1.5395093E-2,7.244044E-3,-4.084474E-3,7.207113E-4,-5.175077E-3],"categories":[],"categories_nodes":[],"categories_segments":[],"categories_sizes":[],"default_left":[0,0,0,0,0,0,0,0,0,0,0],"id":2,"left_children":[1,3,5,7,9,-1,-1,-1,-1,-1,-1],"loss_changes":[4.9261373E-2,2.451548E-2,4.6031997E-3,2.6751995E-2,9.80971E-3,0E0,0E0,0E0,0E0,0E0,0E0],"parents":[2147483647,0,0,1,1,2,2,3,3,4,4],"right_children":[2,4,6,8,10,-1,-1,-1,-1,-1,-1],"split_conditions":[1.2E1,3E0,3E0,1E0,8E0,-2.8603703E-3,-1.5395093E-2,7.244044E-3,-4.084474E-3,7.207113E-4,-5.175077E-3],"split_indices":[0,6,6,2,0,0,0,0,0,0,0],"split_type":[0,0,0,0,0,0,0,0,0,0,0],"sum_hessian":[2.2E1,2E1,2E0,1E1,1E1,1E0,1E0,8E0,2E0,6E0,4E0],"tree_param":{"num_deleted":"0","num_feature":"7","num_nodes":"11","size_leaf_vector":"1"}},{"base_weights":[-2.5711216E-3,1.3700857E-2,-1.1561793E-1,4.3604206E-2,-1.7448025E-2,-2.717352E-3,-1.4625338E-2,6.600128E-3,-3.812176E-3,-6.3794376E-3,-6.0571565E-6],"categories":[],"categories_nodes":[],"categories_segments":[],"categories_sizes":[],"default_left":[0,0,0,0,0,0,0,0,0,0,0],"id":3,"left_children":[1,3,5,7,9,-1,-1,-1,-1,-1,-1],"loss_changes":[4.3892454E-2,2.032138E-2,4.154388E-3,2.2650735E-2,8.86043E-3,0E0,0E0,0E0,0E0,0E0,0E0],"parents":[2147483647,0,0,1,1,2,2,3,3,4,4],"right_children":[2,4,6,8,10,-1,-1,-1,-1,-1,-1],"split_conditions":[1.2E1,3E0,3E0,1E0,3E0,-2.717352E-3,-1.4625338E-2,6.600128E-3,-3.812176E-3,-6.3794376E-3,-6.0571565E-6],"split_indices":[0,6,6,2,0,0,0,0,0,0,0],"split_type":[0,0,0,0,0,0,0,0,0,0,0],"sum_hessian":[2.2E1,2E1,2E0,1E1,1E1,1E0,1E0,8E0,2E0,2E0,8E0],"tree_param":{"num_deleted":"0","num_feature":"7","num_nodes":"11","size_leaf_vector":"1"}},{"base_weights":[-3.2244506E-3,1.2159464E-2,-1.0983703E-1,3.949723E-2,-1.6283708E-2,-2.5814832E-3,-1.3894073E-2,6.013449E-3,-3.5580297E-3,8.4155035E-4,-4.760586E-3],"categories":[],"categories_nodes":[],"categories_segments":[],"categories_sizes":[],"default_left":[0,0,0,0,0,0,0,0,0,0,0],"id":4,"left_children":[1,3,5,7,9,-1,-1,-1,-1,-1,-1],"loss_changes":[3.9058294E-2,1.6972188E-2,3.7493333E-3,1.9182941E-2,8.910584E-3,0E0,0E0,0E0,0E0,0E0,0E0],"parents":[2147483647,0,0,1,1,2,2,3,3,4,4],"right_children":[2,4,6,8,10,-1,-1,-1,-1,-1,-1],"split_conditions":[1.2E1,3E0,3E0,1E0,8E0,-2.5814832E-3,-1.3894073E-2,6.013449E-3,-3.5580297E-3,8.4155035E-4,-4.760586E-3],"split_indices":[0,6,6,2,0,0,0,0,0,0,0],"split_type":[0,0,0,0,0,0,0,0,0,0,0],"sum_hessian":[2.2E1,2E1,2E0,1E1,1E1,1E0,1E0,8E0,2E0,6E0,4E0],"tree_param":{"num_deleted":"0","num_feature":"7","num_nodes":"11","size_leaf_vector":"1"}},{"base_weights":[-3.6819759E-3,1.0873814E-2,-1.0434518E-1,3.5770725E-2,-1.5011624E-2,-2.4524094E-3,-1.31993685E-2,5.47892E-3,-3.320827E-3,-6.0102465E-3,1.6866128E-4],"categories":[],"categories_nodes":[],"categories_segments":[],"categories_sizes":[],"default_left":[0,0,0,0,0,0,0,0,0,0,0],"id":5,"left_children":[1,3,5,7,9,-1,-1,-1,-1,-1,-1],"loss_changes":[3.4834977E-2,1.4070794E-2,3.3837743E-3,1.6250081E-2,8.383682E-3,0E0,0E0,0E0,0E0,0E0,0E0],"parents":[2147483647,0,0,1,1,2,2,3,3,4,4],"right_children":[2,4,6,8,10,-1,-1,-1,-1,-1,-1],"split_conditions":[1.2E1,3E0,3E0,1E0,3E0,-2.4524094E-3,-1.31993685E-2,5.47892E-3,-3.320827E-3,-6.0102465E-3,1.6866128E-4],"split_indices":[0,6,6,2,0,0,0,0,0,0,0],"split_type":[0,0,0,0,0,0,0,0,0,0,0],"sum_hessian":[2.2E1,2E1,2E0,1E1,1E1,1E0,1E0,8E0,2E0,2E0,8E0],"tree_param":{"num_deleted":"0","num_feature":"7","num_nodes":"11","size_leaf_vector":"1"}},{"base_weights":[-4.154449E-3,9.611019E-3,-9.912791E-2,3.2389842E-2,-1.4041532E-2,-2.3297877E-3,-1.2539399E-2,4.9919053E-3,-3.0994394E-3,9.314989E-4,-4.393236E-3],"categories":[],"categories_nodes":[],"categories_segments":[],"categories_sizes":[],"default_left":[0,0,0,0,0,0,0,0,0,0,0],"id":6,"left_children":[1,3,5,7,9,-1,-1,-1,-1,-1,-1],"loss_changes":[3.1021867E-2,1.1769126E-2,3.0538589E-3,1.376904E-2,8.088831E-3,0E0,0E0,0E0,0E0,0E0,0E0],"parents":[2147483647,0,0,1,1,2,2,3,3,4,4],"right_children":[2,4,6,8,10,-1,-1,-1,-1,-1,-1],"split_conditions":[1.2E1,3E0,3E0,1E0,8E0,-2.3297877E-3,-1.2539399E-2,4.9919053E-3,-3.0994394E-3,9.314989E-4,-4.393236E-3],"split_indices":[0,6,6,2,0,0,0,0,0,0,0],"split_type":[0,0,0,0,0,0,0,0,0,0,0],"sum_hessian":[2.2E1,2E1,2E0,1E1,1E1,1E0,1E0,8E0,2E0,6E0,4E0],"tree_param":{"num_deleted":"0","num_feature":"7","num_nodes":"11","size_leaf_vector":"1"}},{"base_weights":[-4.4537187E-3,8.575193E-3,-9.4171524E-2,2.9322911E-2,-1.2952089E-2,-2.2132993E-3,-1.191243E-2,4.548182E-3,-2.8928102E-3,-5.671664E-3,3.0752155E-4],"categories":[],"categories_nodes":[],"categories_segments":[],"categories_sizes":[],"default_left":[0,0,0,0,0,0,0,0,0,0,0],"id":7,"left_children":[1,3,5,7,9,-1,-1,-1,-1,-1,-1],"loss_changes":[2.7692823E-2,9.759275E-3,2.7561039E-3,1.1669698E-2,7.890122E-3,0E0,0E0,0E0,0E0,0E0,0E0],"parents":[2147483647,0,0,1,1,2,2,3,3,4,4],"right_children":[2,4,6,8,10,-1,-1,-1,-1,-1,-1],"split_conditions":[1.2E1,3E0,3E0,1E0,3E0,-2.2132993E-3,-1.191243E-2,4.548182E-3,-2.8928102E-3,-5.671664E-3,3.0752155E-4],"split_indices":[0,6,6,2,0,0,0,0,0,0,0],"split_type":[0,0,0,0,0,0,0,0,0,0,0],"sum_hessian":[2.2E1,2E1,2E0,1E1,1E1,1E0,1E0,8E0,2E0,2E0,8E0],"tree_param":{"num_deleted":"0","num_feature":"7","num_nodes":"11","size_leaf_vector":"1"}},{"base_weights":[-4.7837575E-3,7.541069E-3,-8.946296E-2,2.700811E-2,-1.2611524E-2,-2.1026344E-3,-1.1316809E-2,3.718701E-4,8.787364E-3,8.51816E-4,-3.1639289E-3],"categories":[],"categories_nodes":[],"categories_segments":[],"categories_sizes":[],"default_left":[0,0,0,0,0,0,0,0,0,0,0],"id":8,"left_children":[1,3,5,7,9,-1,-1,-1,-1,-1,-1],"loss_changes":[2.4678744E-2,8.579154E-3,2.4873856E-3,1.5265968E-2,4.692065E-3,0E0,0E0,0E0,0E0,0E0,0E0],"parents":[2147483647,0,0,1,1,2,2,3,3,4,4],"right_children":[2,4,6,8,10,-1,-1,-1,-1,-1,-1],"split_conditions":[1.2E1,7E0,3E0,6E0,3E0,-2.1026344E-3,-1.1316809E-2,3.718701E-4,8.787364E-3,8.51816E-4,-3.1639289E-3],"split_indices":[0,0,6,0,6,0,0,0,0,0,0],"split_type":[0,0,0,0,0,0,0,0,0,0,0],"sum_hessian":[2.2E1,2E1,2E0,1E1,1E1,1E0,1E0,8E0,2E0,5E0,5E0],"tree_param":{"num_deleted":"0","num_feature":"7","num_nodes":"11","size_leaf_vector":"1"}},{"base_weights":[-4.5911334E-3,7.1130167E-3,-8.498981E-2,2.521983E-2,-1.1640435E-2,-1.9975037E-3,-1.0750967E-2,6.9278227E-3,3.8154426E-6,-5.3183436E-3,3.500614E-4],"categories":[],"categories_nodes":[],"categories_segments":[],"categories_sizes":[],"default_left":[0,0,0,0,0,0,0,0,0,0,0],"id":9,"left_children":[1,3,5,7,9,-1,-1,-1,-1,-1,-1],"loss_changes":[2.2247493E-2,7.42444E-3,2.24486E-3,1.2201464E-2,7.1052257E-3,0E0,0E0,0E0,0E0,0E0,0E0],"parents":[2147483647,0,0,1,1,2,2,3,3,4,4],"right_children":[2,4,6,8,10,-1,-1,-1,-1,-1,-1],"split_conditions":[1.2E1,3E0,3E0,5E0,3E0,-1.9975037E-3,-1.0750967E-2,6.9278227E-3,3.8154426E-6,-5.3183436E-3,3.500614E-4],"split_indices":[0,6,6,0,0,0,0,0,0,0,0],"split_type":[0,0,0,0,0,0,0,0,0,0,0],"sum_hessian":[2.2E1,2E1,2E0,1E1,1E1,1E0,1E0,3E0,7E0,2E0,8E0],"tree_param":{"num_deleted":"0","num_feature":"7","num_nodes":"11","size_leaf_vector":"1"}},{"base_weights":[-4.6009393E-3,6.495206E-3,-8.074031E-2,2.412135E-2,-1.1721411E-2,-1.8976271E-3,-1.021342E-2,2.1825035E-4,8.189744E-3,7.805139E-4,-2.9294393E-3],"categories":[],"categories_nodes":[],"categories_segments":[],"categories_sizes":[],"default_left":[0,0,0,0,0,0,0,0,0,0,0],"id":10,"left_children":[1,3,5,7,9,-1,-1,-1,-1,-1,-1],"loss_changes":[1.9956056E-2,7.0255985E-3,2.0259917E-3,1.3764206E-2,4.0031835E-3,0E0,0E0,0E0,0E0,0E0,0E0],"parents":[2147483647,0,0,1,1,2,2,3,3,4,4],"right_children":[2,4,6,8,10,-1,-1,-1,-1,-1,-1],"split_conditions":[1.2E1,7E0,3E0,6E0,3E0,-1.8976271E-3,-1.021342E-2,2.1825035E-4,8.189744E-3,7.805139E-4,-2.9294393E-3],"split_indices":[0,0,6,0,6,0,0,0,0,0,0],"split_type":[0,0,0,0,0,0,0,0,0,0,0],"sum_hessian":[2.2E1,2E1,2E0,1E1,1E1,1E0,1E0,8E0,2E0,5E0,5E0],"tree_param":{"num_deleted":"0","num_feature":"7","num_nodes":"11","size_leaf_vector":"1"}},{"base_weights":[-4.395285E-3,6.1437287E-3,-7.670329E-2,2.2473563E-2,-1.0744626E-2,-1.8027455E-3,-9.702749E-3,1.9884839E-4,7.6437616E-3,7.1547035E-4,-2.6853185E-3],"categories":[],"categories_nodes":[],"categories_segments":[],"categories_sizes":[],"default_left":[0,0,0,0,0,0,0,0,0,0,0],"id":11,"left_children":[1,3,5,7,9,-1,-1,-1,-1,-1,-1],"loss_changes":[1.7998513E-2,6.0329344E-3,1.8284563E-3,1.2008041E-2,3.3637825E-3,0E0,0E0,0E0,0E0,0E0,0E0],"parents":[2147483647,0,0,1,1,2,2,3,3,4,4],"right_children":[2,4,6,8,10,-1,-1,-1,-1,-1,-1],"split_conditions":[1.2E1,7E0,3E0,6E0,3E0,-1.8027455E-3,-9.702749E-3,1.9884839E-4,7.6437616E-3,7.1547035E-4,-2.6853185E-3],"split_indices":[0,0,6,0,6,0,0,0,0,0,0],"split_type":[0,0,0,0,0,0,0,0,0,0,0],"sum_hessian":[2.2E1,2E1,2E0,1E1,1E1,1E0,1E0,8E0,2E0,5E0,5E0],"tree_param":{"num_deleted":"0","num_feature":"7","num_nodes":"11","size_leaf_vector":"1"}},{"base_weights":[-4.2006634E-3,5.8090063E-3,-7.286813E-2,2.1056896E-2,-9.966975E-3,-1.7126084E-3,-9.2176115E-3,6.3769505E-3,-2.9315203E-4,-4.991595E-3,4.4567915E-4],"categories":[],"categories_nodes":[],"categories_segments":[],"categories_sizes":[],"default_left":[0,0,0,0,0,0,0,0,0,0,0],"id":12,"left_children":[1,3,5,7,9,-1,-1,-1,-1,-1,-1],"loss_changes":[1.623208E-2,5.2614324E-3,1.6501825E-3,1.1457628E-2,6.5608267E-3,0E0,0E0,0E0,0E0,0E0,0E0],"parents":[2147483647,0,0,1,1,2,2,3,3,4,4],"right_children":[2,4,6,8,10,-1,-1,-1,-1,-1,-1],"split_conditions":[1.2E1,3E0,3E0,5E0,3E0,-1.7126084E-3,-9.2176115E-3,6.3769505E-3,-2.9315203E-4,-4.991595E-3,4.4567915E-4],"split_indices":[0,6,6,0,0,0,0,0,0,0,0],"split_type":[0,0,0,0,0,0,0,0,0,0,0],"sum_hessian":[2.2E1,2E1,2E0,1E1,1E1,1E0,1E0,3E0,7E0,2E0,8E0],"tree_param":{"num_deleted":"0","num_feature":"7","num_nodes":"11","size_leaf_vector":"1"}},{"base_weights":[-4.188955E-3,5.3013423E-3,-6.9224715E-2,2.0039331E-2,-9.918586E-3,-1.6269773E-3,-8.75673E-3,7.288721E-5,7.129093E-3,6.802738E-4,-2.4986814E-3],"categories":[],"categories_nodes":[],"categories_segments":[],"categories_sizes":[],"default_left":[0,0,0,0,0,0,0,0,0,0,0],"id":13,"left_children":[1,3,5,7,9,-1,-1,-1,-1,-1,-1],"loss_changes":[1.4562783E-2,4.9092956E-3,1.4892919E-3,1.0834648E-2,2.9415465E-3,0E0,0E0,0E0,0E0,0E0,0E0],"parents":[2147483647,0,0,1,1,2,2,3,3,4,4],"right_children":[2,4,6,8,10,-1,-1,-1,-1,-1,-1],"split_conditions":[1.2E1,7E0,3E0,6E0,3E0,-1.6269773E-3,-8.75673E-3,7.288721E-5,7.129093E-3,6.802738E-4,-2.4986814E-3],"split_indices":[0,0,6,0,6,0,0,0,0,0,0],"split_type":[0,0,0,0,0,0,0,0,0,0,0],"sum_hessian":[2.2E1,2E1,2E0,1E1,1E1,1E0,1E0,8E0,2E0,5E0,5E0],"tree_param":{"num_deleted":"0","num_feature":"7","num_nodes":"11","size_leaf_vector":"1"}},{"base_weights":[-3.987455E-3,5.0275694E-3,-6.576347E-2,1.869012E-2,-9.092033E-3,-1.5456289E-3,-8.318893E-3,6.640752E-5,6.6538216E-3,6.235848E-4,-2.2904575E-3],"categories":[],"categories_nodes":[],"categories_segments":[],"categories_sizes":[],"default_left":[0,0,0,0,0,0,0,0,0,0,0],"id":14,"left_children":[1,3,5,7,9,-1,-1,-1,-1,-1,-1],"loss_changes":[1.3139614E-2,4.221037E-3,1.3440838E-3,9.443445E-3,2.4717164E-3,0E0,0E0,0E0,0E0,0E0,0E0],"parents":[2147483647,0,0,1,1,2,2,3,3,4,4],"right_children":[2,4,6,8,10,-1,-1,-1,-1,-1,-1],"split_conditions":[1.2E1,7E0,3E0,6E0,3E0,-1.5456289E-3,-8.318893E-3,6.640752E-5,6.6538216E-3,6.235848E-4,-2.2904575E-3],"split_indices":[0,0,6,0,6,0,0,0,0,0,0],"split_type":[0,0,0,0,0,0,0,0,0,0,0],"sum_hessian":[2.2E1,2E1,2E0,1E1,1E1,1E0,1E0,8E0,2E0,5E0,5E0],"tree_param":{"num_deleted":"0","num_feature":"7","num_nodes":"11","size_leaf_vector":"1"}},{"base_weights":[-3.7978939E-3,4.7654454E-3,-6.2475305E-2,1.760797E-2,-8.510303E-3,-1.4683485E-3,-7.902947E-3,5.8882344E-3,-5.230211E-4,-4.6681087E-3,5.1588815E-4],"categories":[],"categories_nodes":[],"categories_segments":[],"categories_sizes":[],"default_left":[0,0,0,0,0,0,0,0,0,0,0],"id":15,"left_children":[1,3,5,7,9,-1,-1,-1,-1,-1,-1],"loss_changes":[1.18546365E-2,3.730226E-3,1.2130346E-3,1.0676914E-2,5.9802206E-3,0E0,0E0,0E0,0E0,0E0,0E0],"parents":[2147483647,0,0,1,1,2,2,3,3,4,4],"right_children":[2,4,6,8,10,-1,-1,-1,-1,-1,-1],"split_conditions":[1.2E1,3E0,3E0,5E0,3E0,-1.4683485E-3,-7.902947E-3,5.8882344E-3,-5.230211E-4,-4.6681087E-3,5.1588815E-4],"split_indices":[0,6,6,0,0,0,0,0,0,0,0],"split_type":[0,0,0,0,0,0,0,0,0,0,0],"sum_hessian":[2.2E1,2E1,2E0,1E1,1E1,1E0,1E0,3E0,7E0,2E0,8E0],"tree_param":{"num_deleted":"0","num_feature":"7","num_nodes":"11","size_leaf_vector":"1"}},{"base_weights":[-3.7728057E-3,4.3466715E-3,-5.9351545E-2,1.662931E-2,-8.33112E-3,-1.3949305E-3,-7.507801E-3,-3.7685368E-5,6.21047E-3,6.152054E-4,-2.1425774E-3],"categories":[],"categories_nodes":[],"categories_segments":[],"categories_sizes":[],"default_left":[0,0,0,0,0,0,0,0,0,0,0],"id":16,"left_children":[1,3,5,7,9,-1,-1,-1,-1,-1,-1],"loss_changes":[1.0637199E-2,3.4085924E-3,1.094765E-3,8.530387E-3,2.2179864E-3,0E0,0E0,0E0,0E0,0E0,0E0],"parents":[2147483647,0,0,1,1,2,2,3,3,4,4],"right_children":[2,4,6,8,10,-1,-1,-1,-1,-1,-1],"split_conditions":[1.2E1,7E0,3E0,6E0,3E0,-1.3949305E-3,-7.507801E-3,-3.7685368E-5,6.21047E-3,6.152054E-4,-2.1425774E-3],"split_indices":[0,0,6,0,6,0,0,0,0,0,0],"split_type":[0,0,0,0,0,0,0,0,0,0,0],"sum_hessian":[2.2E1,2E1,2E0,1E1,1E1,1E0,1E0,8E0,2E0,5E0,5E0],"tree_param":{"num_deleted":"0","num_feature":"7","num_nodes":"11","size_leaf_vector":"1"}},{"base_weights":[-3.5806298E-3,4.1332105E-3,-5.6383967E-2,1.365469E-2,-1.0079284E-2,-1.3251841E-3,-7.132411E-3,-3.4336914E-5,3.6120259E-3,1.1002064E-3,-2.9144776E-3],"categories":[],"categories_nodes":[],"categories_segments":[],"categories_sizes":[],"default_left":[0,0,0,0,0,0,0,0,0,0,0],"id":17,"left_children":[1,3,5,7,9,-1,-1,-1,-1,-1,-1],"loss_changes":[9.601327E-3,2.9794334E-3,9.880243E-4,4.1005695E-3,3.937989E-3,0E0,0E0,0E0,0E0,0E0,0E0],"parents":[2147483647,0,0,1,1,2,2,3,3,4,4],"right_children":[2,4,6,8,10,-1,-1,-1,-1,-1,-1],"split_conditions":[1.2E1,8E0,3E0,6E0,3E0,-1.3251841E-3,-7.132411E-3,-3.4336914E-5,3.6120259E-3,1.1002064E-3,-2.9144776E-3],"split_indices":[0,0,6,0,6,0,0,0,0,0,0],"split_type":[0,0,0,0,0,0,0,0,0,0,0],"sum_hessian":[2.2E1,2E1,2E0,1.2E1,8E0,1E0,1E0,8E0,4E0,4E0,4E0],"tree_param":{"num_deleted":"0","num_feature":"7","num_nodes":"11","size_leaf_vector":"1"}},{"base_weights":[-3.513616E-3,3.8038634E-3,-5.356477E-2,1.489577E-2,-7.6338486E-3,-1.2589246E-3,-6.7757904E-3,-3.1285155E-5,5.5556376E-3,4.303942E-4,-1.8299333E-3],"categories":[],"categories_nodes":[],"categories_segments":[],"categories_sizes":[],"default_left":[0,0,0,0,0,0,0,0,0,0,0],"id":18,"left_children":[1,3,5,7,9,-1,-1,-1,-1,-1,-1],"loss_changes":[8.627463E-3,2.7778987E-3,8.9169294E-4,6.8196906E-3,1.4793046E-3,0E0,0E0,0E0,0E0,0E0,0E0],"parents":[2147483647,0,0,1,1,2,2,3,3,4,4],"right_children":[2,4,6,8,10,-1,-1,-1,-1,-1,-1],"split_conditions":[1.2E1,7E0,3E0,6E0,3E0,-1.2589246E-3,-6.7757904E-3,-3.1285155E-5,5.5556376E-3,4.303942E-4,-1.8299333E-3],"split_indices":[0,0,6,0,6,0,0,0,0,0,0],"split_type":[0,0,0,0,0,0,0,0,0,0,0],"sum_hessian":[2.2E1,2E1,2E0,1E1,1E1,1E0,1E0,8E0,2E0,5E0,5E0],"tree_param":{"num_deleted":"0","num_feature":"7","num_nodes":"11","size_leaf_vector":"1"}},{"base_weights":[-3.3322521E-3,3.619895E-3,-5.088653E-2,1.3908413E-2,-6.9977045E-3,-1.1959792E-3,-6.437001E-3,-2.8503606E-5,5.1852628E-3,3.945271E-4,-1.6774395E-3],"categories":[],"categories_nodes":[],"categories_segments":[],"categories_sizes":[],"default_left":[0,0,0,0,0,0,0,0,0,0,0],"id":19,"left_children":[1,3,5,7,9,-1,-1,-1,-1,-1,-1],"loss_changes":[7.7881045E-3,2.3913537E-3,8.0475165E-4,5.9389304E-3,1.2430267E-3,0E0,0E0,0E0,0E0,0E0,0E0],"parents":[2147483647,0,0,1,1,2,2,3,3,4,4],"right_children":[2,4,6,8,10,-1,-1,-1,-1,-1,-1],"split_conditions":[1.2E1,7E0,3E0,6E0,3E0,-1.1959792E-3,-6.437001E-3,-2.8503606E-5,5.1852628E-3,3.945271E-4,-1.6774395E-3],"split_indices":[0,0,6,0,6,0,0,0,0,0,0],"split_type":[0,0,0,0,0,0,0,0,0,0,0],"sum_hessian":[2.2E1,2E1,2E0,1E1,1E1,1E0,1E0,8E0,2E0,5E0,5E0],"tree_param":{"num_deleted":"0","num_feature":"7","num_nodes":"11","size_leaf_vector":"1"}},{"base_weights":[-3.162467E-3,3.4423755E-3,-4.834221E-2,1.8705385E-2,-3.909854E-3,-1.1361808E-3,-6.1151506E-3,5.456501E-3,-2.183059E-3,-4.442503E-3,5.74056E-4],"categories":[],"categories_nodes":[],"categories_segments":[],"categories_sizes":[],"default_left":[0,0,0,0,0,0,0,0,0,0,0],"id":20,"left_children":[1,3,5,7,9,-1,-1,-1,-1,-1,-1],"loss_changes":[7.0297285E-3,2.4296956E-3,7.2628725E-4,1.13664195E-2,6.1198478E-3,0E0,0E0,0E0,0E0,0E0,0E0],"parents":[2147483647,0,0,1,1,2,2,3,3,4,4],"right_children":[2,4,6,8,10,-1,-1,-1,-1,-1,-1],"split_conditions":[1.2E1,5E0,3E0,3E0,6E0,-1.1361808E-3,-6.1151506E-3,5.456501E-3,-2.183059E-3,-4.442503E-3,5.74056E-4],"split_indices":[0,0,6,6,0,0,0,0,0,0,0],"split_type":[0,0,0,0,0,0,0,0,0,0,0],"sum_hessian":[2.2E1,2E1,2E0,6E0,1.4E1,1E0,1E0,3E0,3E0,2E0,1.2E1],"tree_param":{"num_deleted":"0","num_feature":"7","num_nodes":"11","size_leaf_vector":"1"}},{"base_weights":[-3.187361E-3,3.0698094E-3,-4.59251E-2,1.2796965E-2,-6.93642E-3,-1.0793715E-3,-5.8093937E-3,-3.6362806E-5,4.801309E-3,3.138125E-4,-1.5854895E-3],"categories":[],"categories_nodes":[],"categories_segments":[],"categories_sizes":[],"default_left":[0,0,0,0,0,0,0,0,0,0,0],"id":21,"left_children":[1,3,5,7,9,-1,-1,-1,-1,-1,-1],"loss_changes":[6.2915795E-3,2.1327406E-3,6.554746E-4,5.115575E-3,1.0381E-3,0E0,0E0,0E0,0E0,0E0,0E0],"parents":[2147483647,0,0,1,1,2,2,3,3,4,4],"right_children":[2,4,6,8,10,-1,-1,-1,-1,-1,-1],"split_conditions":[1.2E1,7E0,3E0,6E0,3E0,-1.0793715E-3,-5.8093937E-3,-3.6362806E-5,4.801309E-3,3.138125E-4,-1.5854895E-3],"split_indices":[0,0,6,0,6,0,0,0,0,0,0],"split_type":[0,0,0,0,0,0,0,0,0,0,0],"sum_hessian":[2.2E1,2E1,2E0,1E1,1E1,1E0,1E0,8E0,2E0,5E0,5E0],"tree_param":{"num_deleted":"0","num_feature":"7","num_nodes":"11","size_leaf_vector":"1"}},{"base_weights":[-3.0162618E-3,2.929168E-3,-4.3628853E-2,1.7333653E-2,-3.988202E-3,-1.0254026E-3,-5.5189254E-3,5.04999E-3,-2.016601E-3,-4.143912E-3,4.961101E-4],"categories":[],"categories_nodes":[],"categories_segments":[],"categories_sizes":[],"default_left":[0,0,0,0,0,0,0,0,0,0,0],"id":22,"left_children":[1,3,5,7,9,-1,-1,-1,-1,-1,-1],"loss_changes":[5.6813606E-3,2.1615946E-3,5.9156725E-4,9.724442E-3,5.2329777E-3,0E0,0E0,0E0,0E0,0E0,0E0],"parents":[2147483647,0,0,1,1,2,2,3,3,4,4],"right_children":[2,4,6,8,10,-1,-1,-1,-1,-1,-1],"split_conditions":[1.2E1,5E0,3E0,3E0,6E0,-1.0254026E-3,-5.5189254E-3,5.04999E-3,-2.016601E-3,-4.143912E-3,4.961101E-4],"split_indices":[0,0,6,6,0,0,0,0,0,0,0],"split_type":[0,0,0,0,0,0,0,0,0,0,0],"sum_hessian":[2.2E1,2E1,2E0,6E0,1.4E1,1E0,1E0,3E0,3E0,2E0,1.2E1],"tree_param":{"num_deleted":"0","num_feature":"7","num_nodes":"11","size_leaf_vector":"1"}},{"base_weights":[-3.025879E-3,2.6070022E-3,-4.144742E-2,1.1786385E-2,-6.809381E-3,-9.741336E-4,-5.2429796E-3,-4.2157702E-5,4.4481475E-3,2.4632018E-4,-1.4947067E-3],"categories":[],"categories_nodes":[],"categories_segments":[],"categories_sizes":[],"default_left":[0,0,0,0,0,0,0,0,0,0,0],"id":23,"left_children":[1,3,5,7,9,-1,-1,-1,-1,-1,-1],"loss_changes":[5.085805E-3,1.8954263E-3,5.3388765E-4,4.409297E-3,8.6684857E-4,0E0,0E0,0E0,0E0,0E0,0E0],"parents":[2147483647,0,0,1,1,2,2,3,3,4,4],"right_children":[2,4,6,8,10,-1,-1,-1,-1,-1,-1],"split_conditions":[1.2E1,7E0,3E0,6E0,3E0,-9.741336E-4,-5.2429796E-3,-4.2157702E-5,4.4481475E-3,2.4632018E-4,-1.4947067E-3],"split_indices":[0,0,6,0,6,0,0,0,0,0,0],"split_type":[0,0,0,0,0,0,0,0,0,0,0],"sum_hessian":[2.2E1,2E1,2E0,1E1,1E1,1E0,1E0,8E0,2E0,5E0,5E0],"tree_param":{"num_deleted":"0","num_feature":"7","num_nodes":"11","size_leaf_vector":"1"}},{"base_weights":[-2.8563272E-3,2.4966483E-3,-3.9375048E-2,1.6069744E-2,-4.003906E-3,-9.254277E-4,-4.9808295E-3,4.6744007E-3,-1.8621952E-3,-3.8648427E-3,4.2989757E-4],"categories":[],"categories_nodes":[],"categories_segments":[],"categories_sizes":[],"default_left":[0,0,0,0,0,0,0,0,0,0,0],"id":24,"left_children":[1,3,5,7,9,-1,-1,-1,-1,-1,-1],"loss_changes":[4.594433E-3,1.9172274E-3,4.8183277E-4,8.319459E-3,4.4808895E-3,0E0,0E0,0E0,0E0,0E0,0E0],"parents":[2147483647,0,0,1,1,2,2,3,3,4,4],"right_children":[2,4,6,8,10,-1,-1,-1,-1,-1,-1],"split_conditions":[1.2E1,5E0,3E0,3E0,6E0,-9.254277E-4,-4.9808295E-3,4.6744007E-3,-1.8621952E-3,-3.8648427E-3,4.2989757E-4],"split_indices":[0,0,6,6,0,0,0,0,0,0,0],"split_type":[0,0,0,0,0,0,0,0,0,0,0],"sum_hessian":[2.2E1,2E1,2E0,6E0,1.4E1,1E0,1E0,3E0,3E0,2E0,1.2E1],"tree_param":{"num_deleted":"0","num_feature":"7","num_nodes":"11","size_leaf_vector":"1"}},{"base_weights":[-2.854552E-3,9.323904E-3,-1.6987769E-2,-4.6267113E-4,2.5074959E-2,3.5810072E-3,-3.472525E-2,1.4864512E-3,-3.607188E-3,4.1229445E-3,5.6215125E-5,4.9920413E-3,-1.5670955E-3,-7.7468455E-3,6.013468E-4],"categories":[],"categories_nodes":[],"categories_segments":[],"categories_sizes":[],"default_left":[0,0,0,0,0,0,0,0,0,0,0,0,0,0,0],"id":25,"left_children":[1,3,5,7,9,11,13,-1,-1,-1,-1,-1,-1,-1,-1],"loss_changes":[4.1171694E-3,2.015537E-3,4.1375724E-3,5.4482906E-3,1.956782E-3,6.135047E-3,1.0913674E-2,0E0,0E0,0E0,0E0,0E0,0E0,0E0,0E0],"parents":[2147483647,0,0,1,1,2,2,3,3,4,4,5,5,6,6],"right_children":[2,4,6,8,10,12,14,-1,-1,-1,-1,-1,-1,-1,-1],"split_conditions":[8E0,6E0,3E0,5E0,7E0,9E0,1E0,1.4864512E-3,-3.607188E-3,4.1229445E-3,5.6215125E-5,4.9920413E-3,-1.5670955E-3,-7.7468455E-3,6.013468E-4],"split_indices":[0,0,6,0,0,0,4,0,0,0,0,0,0,0,0],"split_type":[0,0,0,0,0,0,0,0,0,0,0,0,0,0,0],"sum_hessian":[2.2E1,1.2E1,1E1,8E0,4E0,5E0,5E0,6E0,2E0,2E0,2E0,1E0,4E0,2E0,3E0],"tree_param":{"num_deleted":"0","num_feature":"7","num_nodes":"15","size_leaf_vector":"1"}},{"base_weights":[-2.6413721E-3,8.549841E-3,-1.5627228E-2,-6.5205497E-4,2.3403287E-2,3.7937164E-3,-3.244363E-2,1.3590388E-3,-3.366707E-3,3.84808E-3,5.2467985E-5,4.7424375E-3,-1.4417291E-3,-7.230387E-3,5.5624545E-4],"categories":[],"categories_nodes":[],"categories_segments":[],"categories_sizes":[],"default_left":[0,0,0,0,0,0,0,0,0,0,0,0,0,0,0],"id":26,"left_children":[1,3,5,7,9,11,13,-1,-1,-1,-1,-1,-1,-1,-1],"loss_changes":[3.4761424E-3,1.7920984E-3,3.7155766E-3,4.689478E-3,1.7045725E-3,5.4510804E-3,9.491777E-3,0E0,0E0,0E0,0E0,0E0,0E0,0E0,0E0],"parents":[2147483647,0,0,1,1,2,2,3,3,4,4,5,5,6,6],"right_children":[2,4,6,8,10,12,14,-1,-1,-1,-1,-1,-1,-1,-1],"split_conditions":[8E0,6E0,3E0,5E0,7E0,9E0,1E0,1.3590388E-3,-3.366707E-3,3.84808E-3,5.2467985E-5,4.7424375E-3,-1.4417291E-3,-7.230387E-3,5.5624545E-4],"split_indices":[0,0,6,0,0,0,4,0,0,0,0,0,0,0,0],"split_type":[0,0,0,0,0,0,0,0,0,0,0,0,0,0,0],"sum_hessian":[2.2E1,1.2E1,1E1,8E0,4E0,5E0,5E0,6E0,2E0,2E0,2E0,1E0,4E0,2E0,3E0],"tree_param":{"num_deleted":"0","num_feature":"7","num_nodes":"15","size_leaf_vector":"1"}},{"base_weights":[-2.4416058E-3,7.840464E-3,-1.4371178E-2,-8.0992776E-4,2.1843076E-2,3.964454E-3,-3.0311614E-2,1.242549E-3,-3.1422598E-3,3.5915417E-3,4.897118E-5,4.5053153E-3,-1.3263917E-3,-6.7483606E-3,5.145282E-4],"categories":[],"categories_nodes":[],"categories_segments":[],"categories_sizes":[],"default_left":[0,0,0,0,0,0,0,0,0,0,0,0,0,0,0],"id":27,"left_children":[1,3,5,7,9,11,13,-1,-1,-1,-1,-1,-1,-1,-1],"loss_changes":[2.9338729E-3,1.5923562E-3,3.3352273E-3,4.0369844E-3,1.4848704E-3,4.8449296E-3,8.255243E-3,0E0,0E0,0E0,0E0,0E0,0E0,0E0,0E0],"parents":[2147483647,0,0,1,1,2,2,3,3,4,4,5,5,6,6],"right_children":[2,4,6,8,10,12,14,-1,-1,-1,-1,-1,-1,-1,-1],"split_conditions":[8E0,6E0,3E0,5E0,7E0,9E0,1E0,1.242549E-3,-3.1422598E-3,3.5915417E-3,4.897118E-5,4.5053153E-3,-1.3263917E-3,-6.7483606E-3,5.145282E-4],"split_indices":[0,0,6,0,0,0,4,0,0,0,0,0,0,0,0],"split_type":[0,0,0,0,0,0,0,0,0,0,0,0,0,0,0],"sum_hessian":[2.2E1,1.2E1,1E1,8E0,4E0,5E0,5E0,6E0,2E0,2E0,2E0,1E0,4E0,2E0,3E0],"tree_param":{"num_deleted":"0","num_feature":"7","num_nodes":"15","size_leaf_vector":"1"}},{"base_weights":[-2.2545897E-3,7.1903053E-3,-1.3211776E-2,-9.400381E-4,2.0386863E-2,4.0978193E-3,-2.831941E-2,1.1360424E-3,-2.9327772E-3,-3.3833585E-5,3.431644E-3,4.280049E-3,-1.2202811E-3,-6.2984684E-3,4.7594012E-4],"categories":[],"categories_nodes":[],"categories_segments":[],"categories_sizes":[],"default_left":[0,0,0,0,0,0,0,0,0,0,0,0,0,0,0],"id":28,"left_children":[1,3,5,7,9,11,13,-1,-1,-1,-1,-1,-1,-1,-1],"loss_changes":[2.4752545E-3,1.4139675E-3,2.9926249E-3,3.4758158E-3,1.4550767E-3,4.307553E-3,7.179886E-3,0E0,0E0,0E0,0E0,0E0,0E0,0E0,0E0],"parents":[2147483647,0,0,1,1,2,2,3,3,4,4,5,5,6,6],"right_children":[2,4,6,8,10,12,14,-1,-1,-1,-1,-1,-1,-1,-1],"split_conditions":[8E0,6E0,3E0,5E0,3E0,9E0,1E0,1.1360424E-3,-2.9327772E-3,-3.3833585E-5,3.431644E-3,4.280049E-3,-1.2202811E-3,-6.2984684E-3,4.7594012E-4],"split_indices":[0,0,6,0,6,0,4,0,0,0,0,0,0,0,0],"split_type":[0,0,0,0,0,0,0,0,0,0,0,0,0,0,0],"sum_hessian":[2.2E1,1.2E1,1E1,8E0,4E0,5E0,5E0,6E0,2E0,2E0,2E0,1E0,4E0,2E0,3E0],"tree_param":{"num_deleted":"0","num_feature":"7","num_nodes":"15","size_leaf_vector":"1"}},{"base_weights":[-2.0796373E-3,6.5944334E-3,-1.2141753E-2,-1.045684E-3,1.9027758E-2,4.198005E-3,-2.6457885E-2,1.0386654E-3,-2.7372579E-3,3.2388468E-3,-6.755392E-5,-1.7045155E-3,3.1122884E-3,-5.8785696E-3,4.402444E-4],"categories":[],"categories_nodes":[],"categories_segments":[],"categories_sizes":[],"default_left":[0,0,0,0,0,0,0,0,0,0,0,0,0,0,0],"id":29,"left_children":[1,3,5,7,9,11,13,-1,-1,-1,-1,-1,-1,-1,-1],"loss_changes":[2.0874965E-3,1.2547937E-3,2.6842137E-3,2.9931113E-3,1.3381299E-3,3.962311E-3,6.2446822E-3,0E0,0E0,0E0,0E0,0E0,0E0,0E0,0E0],"parents":[2147483647,0,0,1,1,2,2,3,3,4,4,5,5,6,6],"right_children":[2,4,6,8,10,12,14,-1,-1,-1,-1,-1,-1,-1,-1],"split_conditions":[8E0,6E0,3E0,5E0,7E0,1.1E1,1E0,1.0386654E-3,-2.7372579E-3,3.2388468E-3,-6.755392E-5,-1.7045155E-3,3.1122884E-3,-5.8785696E-3,4.402444E-4],"split_indices":[0,0,6,0,0,0,4,0,0,0,0,0,0,0,0],"split_type":[0,0,0,0,0,0,0,0,0,0,0,0,0,0,0],"sum_hessian":[2.2E1,1.2E1,1E1,8E0,4E0,5E0,5E0,6E0,2E0,2E0,2E0,3E0,2E0,2E0,3E0],"tree_param":{"num_deleted":"0","num_feature":"7","num_nodes":"15","size_leaf_vector":"1"}},{"base_weights":[-1.9828884E-3,1.4412658E-3,-2.5291005E-2,7.3199165E-3,-4.5684087E-3,-7.5699686E-4,-3.036654E-3,-1.1298458E-4,3.0229231E-3,1.9149283E-4,-1.0290345E-3],"categories":[],"categories_nodes":[],"categories_segments":[],"categories_sizes":[],"default_left":[0,0,0,0,0,0,0,0,0,0,0],"id":30,"left_children":[1,3,5,7,9,-1,-1,-1,-1,-1,-1],"loss_changes":[1.8720947E-3,7.7534467E-4,3.9957464E-5,2.163515E-3,4.2777488E-4,0E0,0E0,0E0,0E0,0E0,0E0],"parents":[2147483647,0,0,1,1,2,2,3,3,4,4],"right_children":[2,4,6,8,10,-1,-1,-1,-1,-1,-1],"split_conditions":[1.2E1,7E0,3E0,6E0,3E0,-7.5699686E-4,-3.036654E-3,-1.1298458E-4,3.0229231E-3,1.9149283E-4,-1.0290345E-3],"split_indices":[0,0,6,0,6,0,0,0,0,0,0],"split_type":[0,0,0,0,0,0,0,0,0,0,0],"sum_hessian":[2.2E1,2E1,2E0,1E1,1E1,1E0,1E0,8E0,2E0,5E0,5E0],"tree_param":{"num_deleted":"0","num_feature":"7","num_nodes":"11","size_leaf_vector":"1"}},{"base_weights":[-1.8594343E-3,1.3958273E-3,-2.4026453E-2,9.593232E-3,-2.5226832E-3,-7.191479E-4,-2.88482E-3,3.8625852E-3,-2.1837696E-3,-2.5472383E-3,2.9674542E-4],"categories":[],"categories_nodes":[],"categories_segments":[],"categories_sizes":[],"default_left":[0,0,0,0,0,0,0,0,0,0,0],"id":31,"left_children":[1,3,5,7,9,-1,-1,-1,-1,-1,-1],"loss_changes":[1.693204E-3,6.9875456E-4,3.6060694E-5,7.2311545E-3,1.9655433E-3,0E0,0E0,0E0,0E0,0E0,0E0],"parents":[2147483647,0,0,1,1,2,2,3,3,4,4],"right_children":[2,4,6,8,10,-1,-1,-1,-1,-1,-1],"split_conditions":[1.2E1,5E0,3E0,3E0,6E0,-7.191479E-4,-2.88482E-3,3.8625852E-3,-2.1837696E-3,-2.5472383E-3,2.9674542E-4],"split_indices":[0,0,6,6,0,0,0,0,0,0,0],"split_type":[0,0,0,0,0,0,0,0,0,0,0],"sum_hessian":[2.2E1,2E1,2E0,6E0,1.4E1,1E0,1E0,3E0,3E0,2E0,1.2E1],"tree_param":{"num_deleted":"0","num_feature":"7","num_nodes":"11","size_leaf_vector":"1"}},{"base_weights":[-1.8550468E-3,5.630342E-3,-1.0532775E-2,-1.0229216E-3,1.6480148E-2,3.9333203E-3,-2.3243407E-2,8.873761E-4,-2.3774207E-3,-2.6421944E-4,3.0109107E-3,4.126859E-3,-1.1787451E-3,-5.264874E-3,4.621446E-4],"categories":[],"categories_nodes":[],"categories_segments":[],"categories_sizes":[],"default_left":[0,0,0,0,0,0,0,0,0,0,0,0,0,0,0],"id":32,"left_children":[1,3,5,7,9,11,13,-1,-1,-1,-1,-1,-1,-1,-1],"loss_changes":[1.553295E-3,9.552839E-4,2.1140291E-3,2.2374268E-3,1.3826424E-3,4.008087E-3,5.1595652E-3,0E0,0E0,0E0,0E0,0E0,0E0,0E0,0E0],"parents":[2147483647,0,0,1,1,2,2,3,3,4,4,5,5,6,6],"right_children":[2,4,6,8,10,12,14,-1,-1,-1,-1,-1,-1,-1,-1],"split_conditions":[8E0,6E0,3E0,5E0,3E0,9E0,1E0,8.873761E-4,-2.3774207E-3,-2.6421944E-4,3.0109107E-3,4.126859E-3,-1.1787451E-3,-5.264874E-3,4.621446E-4],"split_indices":[0,0,6,0,6,0,4,0,0,0,0,0,0,0,0],"split_type":[0,0,0,0,0,0,0,0,0,0,0,0,0,0,0],"sum_hessian":[2.2E1,1.2E1,1E1,8E0,4E0,5E0,5E0,6E0,2E0,2E0,2E0,1E0,4E0,2E0,3E0],"tree_param":{"num_deleted":"0","num_feature":"7","num_nodes":"15","size_leaf_vector":"1"}},{"base_weights":[-1.69555E-3,6.5023466E-3,-8.501804E-3,-1.086202E-3,2.7100544E-3,-5.3761684E-4,-1.5251449E-2,8.1131374E-4,-2.218926E-3,-1.885053E-3,3.016311E-3,7.051063E-4,-4.733849E-3],"categories":[],"categories_nodes":[],"categories_segments":[],"categories_sizes":[],"default_left":[0,0,0,0,0,0,0,0,0,0,0,0,0],"id":33,"left_children":[1,3,5,7,-1,9,11,-1,-1,-1,-1,-1,-1],"loss_changes":[1.338612E-3,1.7488512E-3,6.9062127E-4,1.9272321E-3,0E0,4.5041284E-3,5.343137E-3,0E0,0E0,0E0,0E0,0E0,0E0],"parents":[2147483647,0,0,1,1,2,2,3,3,5,5,6,6],"right_children":[2,4,6,8,-1,10,12,-1,-1,-1,-1,-1,-1],"split_conditions":[7E0,6E0,3E0,5E0,2.7100544E-3,1.1E1,1.1E1,8.1131374E-4,-2.218926E-3,-1.885053E-3,3.016311E-3,7.051063E-4,-4.733849E-3],"split_indices":[0,0,6,0,0,0,0,0,0,0,0,0,0],"split_type":[0,0,0,0,0,0,0,0,0,0,0,0,0],"sum_hessian":[2.2E1,1E1,1.2E1,8E0,2E0,6E0,6E0,6E0,2E0,4E0,2E0,4E0,2E0],"tree_param":{"num_deleted":"0","num_feature":"7","num_nodes":"13","size_leaf_vector":"1"}},{"base_weights":[-1.595352E-3,1.1248162E-3,-2.0104747E-3,5.9705E-3,-3.8231232E-3,-1.1340049E-4,2.5293848E-3,2.207617E-4,-9.2166767E-4],"categories":[],"categories_nodes":[],"categories_segments":[],"categories_sizes":[],"default_left":[0,0,0,0,0,0,0,0,0],"id":34,"left_children":[1,3,-1,5,7,-1,-1,-1,-1],"loss_changes":[1.1806334E-3,5.263251E-4,0E0,1.5387943E-3,3.781452E-4,0E0,0E0,0E0,0E0],"parents":[2147483647,0,0,1,1,3,3,4,4],"right_children":[2,4,-1,6,8,-1,-1,-1,-1],"split_conditions":[1.2E1,7E0,-2.0104747E-3,6E0,3E0,-1.1340049E-4,2.5293848E-3,2.207617E-4,-9.2166767E-4],"split_indices":[0,0,0,0,6,0,0,0,0],"split_type":[0,0,0,0,0,0,0,0,0],"sum_hessian":[2.2E1,2E1,2E0,1E1,1E1,8E0,2E0,5E0,5E0],"tree_param":{"num_deleted":"0","num_feature":"7","num_nodes":"9","size_leaf_vector":"1"}},{"base_weights":[-1.4486546E-3,1.094012E-3,-1.8764436E-3,5.5931048E-3,-3.5045363E-3,-1.0331803E-4,2.360759E-3,2.0236374E-4,-8.44862E-4],"categories":[],"categories_nodes":[],"categories_segments":[],"categories_sizes":[],"default_left":[0,0,0,0,0,0,0,0,0],"id":35,"left_children":[1,3,-1,5,7,-1,-1,-1,-1],"loss_changes":[1.0331785E-3,4.5407648E-4,0E0,1.3374513E-3,3.1774625E-4,0E0,0E0,0E0,0E0],"parents":[2147483647,0,0,1,1,3,3,4,4],"right_children":[2,4,-1,6,8,-1,-1,-1,-1],"split_conditions":[1.2E1,7E0,-1.8764436E-3,6E0,3E0,-1.0331803E-4,2.360759E-3,2.0236374E-4,-8.44862E-4],"split_indices":[0,0,0,0,6,0,0,0,0],"split_type":[0,0,0,0,0,0,0,0,0],"sum_hessian":[2.2E1,2E1,2E0,1E1,1E1,8E0,2E0,5E0,5E0],"tree_param":{"num_deleted":"0","num_feature":"7","num_nodes":"9","size_leaf_vector":"1"}},{"base_weights":[-1.3151712E-3,1.0614991E-3,-1.7513474E-3,7.6034665E-3,-2.0621857E-3,3.4617425E-3,-2.131136E-3,-2.056551E-3,2.366442E-4],"categories":[],"categories_nodes":[],"categories_segments":[],"categories_sizes":[],"default_left":[0,0,0,0,0,0,0,0,0],"id":36,"left_children":[1,3,-1,5,7,-1,-1,-1,-1],"loss_changes":[9.040452E-4,4.448157E-4,0E0,6.205471E-3,1.2778321E-3,0E0,0E0,0E0,0E0],"parents":[2147483647,0,0,1,1,3,3,4,4],"right_children":[2,4,-1,6,8,-1,-1,-1,-1],"split_conditions":[1.2E1,5E0,-1.7513474E-3,3E0,6E0,3.4617425E-3,-2.131136E-3,-2.056551E-3,2.366442E-4],"split_indices":[0,0,0,6,0,0,0,0,0],"split_type":[0,0,0,0,0,0,0,0,0],"sum_hessian":[2.2E1,2E1,2E0,6E0,1.4E1,3E0,3E0,2E0,1.2E1],"tree_param":{"num_deleted":"0","num_feature":"7","num_nodes":"9","size_leaf_vector":"1"}},{"base_weights":[-1.2810593E-3,4.225607E-3,-7.672478E-3,-9.2787214E-4,1.2656748E-2,4.468312E-3,-1.853452E-2,7.033229E-4,-1.9194484E-3,-4.6698848E-4,2.5764466E-3,3.981781E-3,-1.056515E-3,-4.540654E-3,6.253123E-4],"categories":[],"categories_nodes":[],"categories_segments":[],"categories_sizes":[],"default_left":[0,0,0,0,0,0,0,0,0,0,0,0,0,0,0],"id":37,"left_children":[1,3,5,7,9,11,13,-1,-1,-1,-1,-1,-1,-1,-1],"loss_changes":[8.419153E-4,5.7659013E-4,1.5334296E-3,1.4438004E-3,1.2558802E-3,3.6092328E-3,4.2804973E-3,0E0,0E0,0E0,0E0,0E0,0E0,0E0,0E0],"parents":[2147483647,0,0,1,1,2,2,3,3,4,4,5,5,6,6],"right_children":[2,4,6,8,10,12,14,-1,-1,-1,-1,-1,-1,-1,-1],"split_conditions":[8E0,6E0,3E0,5E0,3E0,9E0,1E0,7.033229E-4,-1.9194484E-3,-4.6698848E-4,2.5764466E-3,3.981781E-3,-1.056515E-3,-4.540654E-3,6.253123E-4],"split_indices":[0,0,6,0,6,0,4,0,0,0,0,0,0,0,0],"split_type":[0,0,0,0,0,0,0,0,0,0,0,0,0,0,0],"sum_hessian":[2.2E1,1.2E1,1E1,8E0,4E0,5E0,5E0,6E0,2E0,2E0,2E0,1E0,4E0,2E0,3E0],"tree_param":{"num_deleted":"0","num_feature":"7","num_nodes":"15","size_leaf_vector":"1"}},{"base_weights":[-1.1571646E-3,4.9805967E-3,-6.261642E-3,-9.702179E-4,2.1172842E-2,1.13572394E-4,-1.1742337E-2,6.43037E-4,-1.7914852E-3,6.5917074E-4,2.5167556E-3,-1.8150652E-3,3.0516088E-3,7.8535796E-4,-4.0488085E-3],"categories":[],"categories_nodes":[],"categories_segments":[],"categories_sizes":[],"default_left":[0,0,0,0,0,0,0,0,0,0,0,0,0,0,0],"id":38,"left_children":[1,3,5,7,9,11,13,-1,-1,-1,-1,-1,-1,-1,-1],"loss_changes":[7.517782E-4,1.0804697E-3,4.5556144E-4,1.2438014E-3,8.845236E-6,4.440835E-3,4.2610713E-3,0E0,0E0,0E0,0E0,0E0,0E0,0E0,0E0],"parents":[2147483647,0,0,1,1,2,2,3,3,4,4,5,5,6,6],"right_children":[2,4,6,8,10,12,14,-1,-1,-1,-1,-1,-1,-1,-1],"split_conditions":[7E0,6E0,3E0,5E0,3E0,1.1E1,1.1E1,6.43037E-4,-1.7914852E-3,6.5917074E-4,2.5167556E-3,-1.8150652E-3,3.0516088E-3,7.8535796E-4,-4.0488085E-3],"split_indices":[0,0,6,0,6,0,0,0,0,0,0,0,0,0,0],"split_type":[0,0,0,0,0,0,0,0,0,0,0,0,0,0,0],"sum_hessian":[2.2E1,1E1,1.2E1,8E0,2E0,6E0,6E0,6E0,2E0,1E0,1E0,4E0,2E0,4E0,2E0],"tree_param":{"num_deleted":"0","num_feature":"7","num_nodes":"15","size_leaf_vector":"1"}},{"base_weights":[-1.0414124E-3,4.666865E-3,-5.7913843E-3,-1.0007885E-3,2.0114204E-2,2.788731E-4,-1.10343015E-2,5.8792153E-4,-1.6720534E-3,6.262124E-4,2.390918E-3,-1.6698588E-3,2.8481684E-3,7.225299E-4,-3.7788867E-3],"categories":[],"categories_nodes":[],"categories_segments":[],"categories_sizes":[],"default_left":[0,0,0,0,0,0,0,0,0,0,0,0,0,0,0],"id":39,"left_children":[1,3,5,7,9,11,13,-1,-1,-1,-1,-1,-1,-1,-1],"loss_changes":[6.506532E-4,9.831818E-4,4.1681333E-4,1.0716707E-3,7.982831E-6,3.8272883E-3,3.6927299E-3,0E0,0E0,0E0,0E0,0E0,0E0,0E0,0E0],"parents":[2147483647,0,0,1,1,2,2,3,3,4,4,5,5,6,6],"right_children":[2,4,6,8,10,12,14,-1,-1,-1,-1,-1,-1,-1,-1],"split_conditions":[7E0,6E0,3E0,5E0,3E0,1.1E1,1.1E1,5.8792153E-4,-1.6720534E-3,6.262124E-4,2.390918E-3,-1.6698588E-3,2.8481684E-3,7.225299E-4,-3.7788867E-3],"split_indices":[0,0,6,0,6,0,0,0,0,0,0,0,0,0,0],"split_type":[0,0,0,0,0,0,0,0,0,0,0,0,0,0,0],"sum_hessian":[2.2E1,1E1,1.2E1,8E0,2E0,6E0,6E0,6E0,2E0,1E0,1E0,4E0,2E0,4E0,2E0],"tree_param":{"num_deleted":"0","num_feature":"7","num_nodes":"15","size_leaf_vector":"1"}},{"base_weights":[-9.348833E-4,9.5287105E-4,-1.3837536E-3,4.5818253E-3,-2.7627079E-3,1.5570713E-3,-2.9912114E-3,-4.2888364E-3,1.0919478E-3],"categories":[],"categories_nodes":[],"categories_segments":[],"categories_sizes":[],"default_left":[0,0,0,0,0,0,0,0,0],"id":40,"left_children":[1,3,-1,5,7,-1,-1,-1,-1],"loss_changes":[5.733974E-4,2.9581523E-4,0E0,4.6353033E-3,6.507392E-3,0E0,0E0,0E0,0E0],"parents":[2147483647,0,0,1,1,3,3,4,4],"right_children":[2,4,-1,6,8,-1,-1,-1,-1],"split_conditions":[1.2E1,3E0,-1.3837536E-3,1E0,3E0,1.5570713E-3,-2.9912114E-3,-4.2888364E-3,1.0919478E-3],"split_indices":[0,6,0,2,0,0,0,0,0],"split_type":[0,0,0,0,0,0,0,0,0],"sum_hessian":[2.2E1,2E1,2E0,1E1,1E1,8E0,2E0,2E0,8E0],"tree_param":{"num_deleted":"0","num_feature":"7","num_nodes":"9","size_leaf_vector":"1"}},{"base_weights":[-1.1029011E-3,4.97708E-3,-6.1626616E-3,7.934041E-6,1.8225491E-2,-4.9516134E-4,-1.0949782E-2,6.427101E-4,-1.4972766E-3,5.1704946E-4,2.2167743E-3,-1.6608322E-3,2.6525161E-3,5.773711E-4,-3.5172345E-3],"categories":[],"categories_nodes":[],"categories_segments":[],"categories_sizes":[],"default_left":[0,0,0,0,0,0,0,0,0,0,0,0,0,0,0],"id":41,"left_children":[1,3,5,7,9,11,13,-1,-1,-1,-1,-1,-1,-1,-1],"loss_changes":[7.3822675E-4,7.240216E-4,3.4728122E-4,9.6170395E-4,3.9780047E-5,3.4882177E-3,3.038676E-3,0E0,0E0,0E0,0E0,0E0,0E0,0E0,0E0],"parents":[2147483647,0,0,1,1,2,2,3,3,4,4,5,5,6,6],"right_children":[2,4,6,8,10,12,14,-1,-1,-1,-1,-1,-1,-1,-1],"split_conditions":[7E0,6E0,3E0,5E0,3E0,1.1E1,1.1E1,6.427101E-4,-1.4972766E-3,5.1704946E-4,2.2167743E-3,-1.6608322E-3,2.6525161E-3,5.773711E-4,-3.5172345E-3],"split_indices":[0,0,6,0,6,0,0,0,0,0,0,0,0,0,0],"split_type":[0,0,0,0,0,0,0,0,0,0,0,0,0,0,0],"sum_hessian":[2.2E1,1E1,1.2E1,8E0,2E0,6E0,6E0,6E0,2E0,1E0,1E0,4E0,2E0,4E0,2E0],"tree_param":{"num_deleted":"0","num_feature":"7","num_nodes":"15","size_leaf_vector":"1"}},{"base_weights":[-9.956178E-4,4.650208E-3,-5.696269E-3,-8.781751E-5,1.7314216E-2,-3.039837E-4,-1.0274802E-2,5.876201E-4,-1.3974587E-3,4.9119594E-4,2.1059364E-3,-1.5279663E-3,2.475681E-3,5.3117995E-4,-3.2827538E-3],"categories":[],"categories_nodes":[],"categories_segments":[],"categories_sizes":[],"default_left":[0,0,0,0,0,0,0,0,0,0,0,0,0,0,0],"id":42,"left_children":[1,3,5,7,9,11,13,-1,-1,-1,-1,-1,-1,-1,-1],"loss_changes":[6.368872E-4,6.615467E-4,3.1783045E-4,8.27506E-4,3.5902194E-5,3.0053924E-3,2.6350166E-3,0E0,0E0,0E0,0E0,0E0,0E0,0E0,0E0],"parents":[2147483647,0,0,1,1,2,2,3,3,4,4,5,5,6,6],"right_children":[2,4,6,8,10,12,14,-1,-1,-1,-1,-1,-1,-1,-1],"split_conditions":[7E0,6E0,3E0,5E0,3E0,1.1E1,1.1E1,5.876201E-4,-1.3974587E-3,4.9119594E-4,2.1059364E-3,-1.5279663E-3,2.475681E-3,5.3117995E-4,-3.2827538E-3],"split_indices":[0,0,6,0,6,0,0,0,0,0,0,0,0,0,0],"split_type":[0,0,0,0,0,0,0,0,0,0,0,0,0,0,0],"sum_hessian":[2.2E1,1E1,1.2E1,8E0,2E0,6E0,6E0,6E0,2E0,1E0,1E0,4E0,2E0,4E0,2E0],"tree_param":{"num_deleted":"0","num_feature":"7","num_nodes":"15","size_leaf_vector":"1"}},{"base_weights":[-8.9679076E-4,4.3476494E-3,-5.26541E-3,-1.6903877E-4,1.6448498E-2,-1.3819763E-4,-9.640421E-3,5.372507E-4,-1.3042967E-3,4.6663583E-4,2.000639E-3,-1.4057291E-3,2.3106358E-3,4.886842E-4,-3.0639053E-3],"categories":[],"categories_nodes":[],"categories_segments":[],"categories_sizes":[],"default_left":[0,0,0,0,0,0,0,0,0,0,0,0,0,0,0],"id":43,"left_children":[1,3,5,7,9,11,13,-1,-1,-1,-1,-1,-1,-1,-1],"loss_changes":[5.4984435E-4,6.0399383E-4,2.9027872E-4,7.121466E-4,3.2401702E-5,2.5896146E-3,2.2850963E-3,0E0,0E0,0E0,0E0,0E0,0E0,0E0,0E0],"parents":[2147483647,0,0,1,1,2,2,3,3,4,4,5,5,6,6],"right_children":[2,4,6,8,10,12,14,-1,-1,-1,-1,-1,-1,-1,-1],"split_conditions":[7E0,6E0,3E0,5E0,3E0,1.1E1,1.1E1,5.372507E-4,-1.3042967E-3,4.6663583E-4,2.000639E-3,-1.4057291E-3,2.3106358E-3,4.886842E-4,-3.0639053E-3],"split_indices":[0,0,6,0,6,0,0,0,0,0,0,0,0,0,0],"split_type":[0,0,0,0,0,0,0,0,0,0,0,0,0,0,0],"sum_hessian":[2.2E1,1E1,1.2E1,8E0,2E0,6E0,6E0,6E0,2E0,1E0,1E0,4E0,2E0,4E0,2E0],"tree_param":{"num_deleted":"0","num_feature":"7","num_nodes":"15","size_leaf_vector":"1"}},{"base_weights":[-8.058237E-4,2.2036154E-3,-7.999344E-3,-5.7400996E-3,9.902484E-3,2.0796463E-2,-3.4795314E-2,-1.7140016E-3,4.2729615E-3,1.9919134E-3,-3.5115362E-3,3.4649093E-3,-1.0380716E-3,-4.1207555E-3,-7.7793E-4],"categories":[],"categories_nodes":[],"categories_segments":[],"categories_sizes":[],"default_left":[0,0,0,0,0,0,0,0,0,0,0,0,0,0,0],"id":44,"left_children":[1,3,5,7,9,11,13,-1,-1,-1,-1,-1,-1,-1,-1],"loss_changes":[5.1554205E-4,1.0965207E-3,6.1249E-3,5.7053426E-3,4.7578197E-3,2.0872264E-3,3.723665E-4,0E0,0E0,0E0,0E0,0E0,0E0,0E0,0E0],"parents":[2147483647,0,0,1,1,2,2,3,3,4,4,5,5,6,6],"right_children":[2,4,6,8,10,12,14,-1,-1,-1,-1,-1,-1,-1,-1],"split_conditions":[1E0,3E0,3E0,1.1E1,1.1E1,3E0,3E0,-1.7140016E-3,4.2729615E-3,1.9919134E-3,-3.5115362E-3,3.4649093E-3,-1.0380716E-3,-4.1207555E-3,-7.7793E-4],"split_indices":[1,6,6,0,0,0,0,0,0,0,0,0,0,0,0],"split_type":[0,0,0,0,0,0,0,0,0,0,0,0,0,0,0],"sum_hessian":[2.2E1,1.6E1,6E0,8E0,8E0,3E0,3E0,7E0,1E0,7E0,1E0,2E0,1E0,2E0,1E0],"tree_param":{"num_deleted":"0","num_feature":"7","num_nodes":"15","size_leaf_vector":"1"}},{"base_weights":[-7.8753027E-4,4.1108727E-3,-4.8717535E-3,-1.5340911E-4,1.5533428E-3,5.221878E-4,-9.56973E-3,5.0596596E-4,-1.2266099E-3,2.195587E-3,-1.2442458E-3,-2.4464428E-3,7.717401E-4],"categories":[],"categories_nodes":[],"categories_segments":[],"categories_sizes":[],"default_left":[0,0,0,0,0,0,0,0,0,0,0,0,0],"id":45,"left_children":[1,3,5,7,-1,9,11,-1,-1,-1,-1,-1,-1],"loss_changes":[4.801691E-4,5.3818186E-4,3.3442513E-4,6.3036085E-4,0E0,2.2183454E-3,1.991208E-3,0E0,0E0,0E0,0E0,0E0,0E0],"parents":[2147483647,0,0,1,1,2,2,3,3,5,5,6,6],"right_children":[2,4,6,8,-1,10,12,-1,-1,-1,-1,-1,-1],"split_conditions":[7E0,6E0,3E0,5E0,1.5533428E-3,9E0,1E0,5.0596596E-4,-1.2266099E-3,2.195587E-3,-1.2442458E-3,-2.4464428E-3,7.717401E-4],"split_indices":[0,0,6,0,0,0,4,0,0,0,0,0,0],"split_type":[0,0,0,0,0,0,0,0,0,0,0,0,0],"sum_hessian":[2.2E1,1E1,1.2E1,8E0,2E0,6E0,6E0,6E0,2E0,2E0,4E0,3E0,3E0],"tree_param":{"num_deleted":"0","num_feature":"7","num_nodes":"13","size_leaf_vector":"1"}},{"base_weights":[-7.040319E-4,2.0593088E-3,-7.3144264E-3,1.7589787E-3,-1.1840741E-3,1.9381583E-2,-3.218183E-2,-7.442959E-4,5.22282E-4,3.2001813E-3,-9.2395546E-4,-3.8797695E-3,-6.167114E-4],"categories":[],"categories_nodes":[],"categories_segments":[],"categories_sizes":[],"default_left":[0,0,0,0,0,0,0,0,0,0,0,0,0],"id":46,"left_children":[1,3,5,-1,7,9,11,-1,-1,-1,-1,-1,-1],"loss_changes":[4.3519845E-4,8.7713957E-4,5.270758E-3,0E0,6.403734E-4,1.7405038E-3,4.491699E-4,0E0,0E0,0E0,0E0,0E0,0E0],"parents":[2147483647,0,0,1,1,2,2,4,4,5,5,6,6],"right_children":[2,4,6,-1,8,10,12,-1,-1,-1,-1,-1,-1],"split_conditions":[1E0,5E0,3E0,1.7589787E-3,3E0,3E0,3E0,-7.442959E-4,5.22282E-4,3.2001813E-3,-9.2395546E-4,-3.8797695E-3,-6.167114E-4],"split_indices":[1,0,6,0,6,0,0,0,0,0,0,0,0],"split_type":[0,0,0,0,0,0,0,0,0,0,0,0,0],"sum_hessian":[2.2E1,1.6E1,6E0,2E0,1.4E1,3E0,3E0,7E0,7E0,2E0,1E0,2E0,1E0],"tree_param":{"num_deleted":"0","num_feature":"7","num_nodes":"13","size_leaf_vector":"1"}},{"base_weights":[-6.633323E-4,1.9437916E-3,-6.9001573E-3,1.6417125E-3,-1.0804613E-3,1.8012479E-2,-3.0087754E-2,-6.791711E-4,4.765846E-4,2.9868365E-3,-8.777589E-4,-3.6211174E-3,-5.8587495E-4],"categories":[],"categories_nodes":[],"categories_segments":[],"categories_sizes":[],"default_left":[0,0,0,0,0,0,0,0,0,0,0,0,0],"id":47,"left_children":[1,3,5,-1,7,9,11,-1,-1,-1,-1,-1,-1],"loss_changes":[3.8739652E-4,7.618455E-4,4.585604E-3,0E0,5.33214E-4,1.5326522E-3,3.8130512E-4,0E0,0E0,0E0,0E0,0E0,0E0],"parents":[2147483647,0,0,1,1,2,2,4,4,5,5,6,6],"right_children":[2,4,6,-1,8,10,12,-1,-1,-1,-1,-1,-1],"split_conditions":[1E0,5E0,3E0,1.6417125E-3,3E0,3E0,3E0,-6.791711E-4,4.765846E-4,2.9868365E-3,-8.777589E-4,-3.6211174E-3,-5.8587495E-4],"split_indices":[1,0,6,0,6,0,0,0,0,0,0,0,0],"split_type":[0,0,0,0,0,0,0,0,0,0,0,0,0],"sum_hessian":[2.2E1,1.6E1,6E0,2E0,1.4E1,3E0,3E0,7E0,7E0,2E0,1E0,2E0,1E0],"tree_param":{"num_deleted":"0","num_feature":"7","num_nodes":"13","size_leaf_vector":"1"}},{"base_weights":[-6.2564143E-4,1.8340735E-3,-6.5098577E-3,1.5322666E-3,-9.859165E-4,1.673849E-2,-2.813074E-2,-6.1974156E-4,4.348822E-4,2.7877132E-3,-8.3387195E-4,-3.3797105E-3,-5.5658224E-4],"categories":[],"categories_nodes":[],"categories_segments":[],"categories_sizes":[],"default_left":[0,0,0,0,0,0,0,0,0,0,0,0,0],"id":48,"left_children":[1,3,5,-1,7,9,11,-1,-1,-1,-1,-1,-1],"loss_changes":[3.4482992E-4,6.617477E-4,3.9894143E-3,0E0,4.4398123E-4,1.3497641E-3,3.233354E-4,0E0,0E0,0E0,0E0,0E0,0E0],"parents":[2147483647,0,0,1,1,2,2,4,4,5,5,6,6],"right_children":[2,4,6,-1,8,10,12,-1,-1,-1,-1,-1,-1],"split_conditions":[1E0,5E0,3E0,1.5322666E-3,3E0,3E0,3E0,-6.1974156E-4,4.348822E-4,2.7877132E-3,-8.3387195E-4,-3.3797105E-3,-5.5658224E-4],"split_indices":[1,0,6,0,6,0,0,0,0,0,0,0,0],"split_type":[0,0,0,0,0,0,0,0,0,0,0,0,0],"sum_hessian":[2.2E1,1.6E1,6E0,2E0,1.4E1,3E0,3E0,7E0,7E0,2E0,1E0,2E0,1E0],"tree_param":{"num_deleted":"0","num_feature":"7","num_nodes":"13","size_leaf_vector":"1"}},{"base_weights":[-5.9067685E-4,3.3359148E-3,-3.8677407E-3,-8.2311366E-4,1.4701028E-3,2.4418405E-3,-9.624788E-3,3.7610787E-4,-1.1245192E-3,-1.0307467E-3,2.287674E-3,-2.4000288E-3,7.1569084E-4],"categories":[],"categories_nodes":[],"categories_segments":[],"categories_sizes":[],"default_left":[0,0,0,0,0,0,0,0,0,0,0,0,0],"id":49,"left_children":[1,3,5,7,-1,9,11,-1,-1,-1,-1,-1,-1],"loss_changes":[3.0885934E-4,5.3204683E-4,4.957214E-4,4.7228532E-4,0E0,2.059517E-3,1.8604847E-3,0E0,0E0,0E0,0E0,0E0,0E0],"parents":[2147483647,0,0,1,1,2,2,3,3,5,5,6,6],"right_children":[2,4,6,8,-1,10,12,-1,-1,-1,-1,-1,-1],"split_conditions":[7E0,6E0,3E0,5E0,1.4701028E-3,1.1E1,1E1,3.7610787E-4,-1.1245192E-3,-1.0307467E-3,2.287674E-3,-2.4000288E-3,7.1569084E-4],"split_indices":[0,0,6,0,0,0,0,0,0,0,0,0,0],"split_type":[0,0,0,0,0,0,0,0,0,0,0,0,0],"sum_hessian":[2.2E1,1E1,1.2E1,8E0,2E0,6E0,6E0,6E0,2E0,4E0,2E0,3E0,3E0],"tree_param":{"num_deleted":"0","num_feature":"7","num_nodes":"13","size_leaf_vector":"1"}}]},"name":"gbtree"},"learner_model_param":{"base_score":"8.411655E-1","boost_from_average":"1","num_class":"0","num_feature":"7","num_target":"1"},"objective":{"name":"reg:squarederror","reg_loss_param":{"scale_pos_weight":"1"}}},"version":[2,1,4]}