{"learner":{"attributes":{"scikit_learn":"{\"_estimator_type\": \"regressor\"}"},"feature_names":["month","is_winter","is_spring","is_summer","is_autumn","is_start_of_year","group_id"],"feature_types":["int","int","int","int","int","int","int"],"gradient_booster":{"model":{"gbtree_model_param":{"num_parallel_tree":"1","num_trees":"50"},"iteration_indptr":[0,1,2,3,4,5,6,7,8,9,10,11,12,13,14,15,16,17,18,19,20,21,22,23,24,25,26,27,28,29,30,31,32,33,34,35,36,37,38,39,40,41,42,43,44,45,46,47,48,49,50],"tree_info":[0,0,0,0,0,0,0,0,0,0,0,0,0,0,0,0,0,0,0,0,0,0,0,0,0,0,0,0,0,0,0,0,0,0,0,0,0,0,0,0,0,0,0,0,0,0,0,0,0,0],"trees":[{"base_weights":[-2.5475543E-4,-2.2593584E3,5.4870127E3,6.7171704E2,-4.939394E3,2.1045454E3,-4.9454546E3,2.9886362E2,-9.848486E1,-7.0129877E2,1.5454546E2,-1.1212123E2,-7.121213E2],"categories":[],"categories_nodes":[],"categories_segments":[],"categories_sizes":[],"default_left":[0,0,0,0,0,0,0,0,0,0,0,0,0],"id":0,"left_children":[1,3,5,7,9,-1,11,-1,-1,-1,-1,-1,-1],"loss_changes":[2.9753104E8,1.3685946E8,1.2402698E9,3.7486516E7,1.3186067E8,0E0,3.361872E7,0E0,0E0,0E0,0E0,0E0,0E0],"parents":[2147483647,0,0,1,1,2,2,3,3,4,4,6,6],"right_children":[2,4,6,8,10,-1,12,-1,-1,-1,-1,-1,-1],"split_conditions":[1E1,3E0,1.1E1,5E0,1E0,2.1045454E3,3E0,2.9886362E2,-9.848486E1,-7.0129877E2,1.5454546E2,-1.1212123E2,-7.121213E2],"split_indices":[0,6,0,0,2,0,6,0,0,0,0,0,0],"split_type":[0,0,0,0,0,0,0,0,0,0,0,0,0],"sum_hessian":[2.2E1,1.6E1,6E0,8E0,8E0,2E0,4E0,3E0,5E0,6E0,2E0,2E0,2E0],"tree_param":{"num_deleted":"0","num_feature":"7","num_nodes":"13","size_leaf_vector":"1"}},{"base_weights":[4.0605213E1,-2.0537979E3,5.121212E3,1.3943639E3,-4.0613738E3,1.9642424E3,-4.615758E3,2.7644873E2,-3.243506E1,-9.027783E1,-6.543074E2,-1.04646484E2,-6.646465E2],"categories":[],"categories_nodes":[],"categories_segments":[],"categories_sizes":[],"default_left":[0,0,0,0,0,0,0,0,0,0,0,0,0],"id":1,"left_children":[1,3,5,7,9,-1,11,-1,-1,-1,-1,-1,-1],"loss_changes":[2.5525723E8,1.2334462E8,1.0804129E9,1.738062E7,8.031859E7,0E0,2.9285664E7,0E0,0E0,0E0,0E0,0E0,0E0],"parents":[2147483647,0,0,1,1,2,2,3,3,4,4,6,6],"right_children":[2,4,6,8,10,-1,12,-1,-1,-1,-1,-1,-1],"split_conditions":[1E1,5E0,1.1E1,3E0,3E0,1.9642424E3,3E0,2.7644873E2,-3.243506E1,-9.027783E1,-6.543074E2,-1.04646484E2,-6.646465E2],"split_indices":[0,0,0,6,6,0,6,0,0,0,0,0,0],"split_type":[0,0,0,0,0,0,0,0,0,0,0,0,0],"sum_hessian":[2.2E1,1.6E1,6E0,6E0,1E1,2E0,4E0,3E0,3E0,5E0,5E0,2E0,2E0],"tree_param":{"num_deleted":"0","num_feature":"7","num_nodes":"13","size_leaf_vector":"1"}},{"base_weights":[6.673472E1,-1.877864E3,4.779798E3,1.2897863E3,-3.7229265E3,1.833293E3,-4.3080405E3,2.5571504E2,-3.0002441E1,-8.275472E1,-5.997818E2,-9.767005E1,-6.2033673E2],"categories":[],"categories_nodes":[],"categories_segments":[],"categories_sizes":[],"default_left":[0,0,0,0,0,0,0,0,0,0,0,0,0],"id":2,"left_children":[1,3,5,7,9,-1,11,-1,-1,-1,-1,-1,-1],"loss_changes":[2.1977118E8,1.0415851E8,9.411598E8,1.487129E7,6.748994E7,0E0,2.5511048E7,0E0,0E0,0E0,0E0,0E0,0E0],"parents":[2147483647,0,0,1,1,2,2,3,3,4,4,6,6],"right_children":[2,4,6,8,10,-1,12,-1,-1,-1,-1,-1,-1],"split_conditions":[1E1,5E0,1.1E1,3E0,3E0,1.833293E3,3E0,2.5571504E2,-3.0002441E1,-8.275472E1,-5.997818E2,-9.767005E1,-6.2033673E2],"split_indices":[0,0,0,6,6,0,6,0,0,0,0,0,0],"split_type":[0,0,0,0,0,0,0,0,0,0,0,0,0],"sum_hessian":[2.2E1,1.6E1,6E0,6E0,1E1,2E0,4E0,3E0,3E0,5E0,5E0,2E0,2E0],"tree_param":{"num_deleted":"0","num_feature":"7","num_nodes":"13","size_leaf_vector":"1"}},{"base_weights":[8.8689705E1,-1.71695E3,4.4611445E3,1.1930525E3,-3.4126833E3,1.7110735E3,-4.0208384E3,2.3653642E2,-2.7752247E1,-7.585857E1,-5.4980005E2,-9.115872E1,-5.78981E2],"categories":[],"categories_nodes":[],"categories_segments":[],"categories_sizes":[],"default_left":[0,0,0,0,0,0,0,0,0,0,0,0,0],"id":3,"left_children":[1,3,5,7,9,-1,11,-1,-1,-1,-1,-1,-1],"loss_changes":[1.8924635E8,8.79595E7,8.198547E8,1.2724247E7,5.6710296E7,0E0,2.2222968E7,0E0,0E0,0E0,0E0,0E0,0E0],"parents":[2147483647,0,0,1,1,2,2,3,3,4,4,6,6],"right_children":[2,4,6,8,10,-1,12,-1,-1,-1,-1,-1,-1],"split_conditions":[1E1,5E0,1.1E1,3E0,3E0,1.7110735E3,3E0,2.3653642E2,-2.7752247E1,-7.585857E1,-5.4980005E2,-9.115872E1,-5.78981E2],"split_indices":[0,0,0,6,6,0,6,0,0,0,0,0,0],"split_type":[0,0,0,0,0,0,0,0,0,0,0,0,0],"sum_hessian":[2.2E1,1.6E1,6E0,6E0,1E1,2E0,4E0,3E0,3E0,5E0,5E0,2E0,2E0],"tree_param":{"num_deleted":"0","num_feature":"7","num_nodes":"13","size_leaf_vector":"1"}},{"base_weights":[1.06954056E2,-1.5697764E3,4.1637344E3,1.103574E3,-3.1282922E3,1.5970018E3,-3.7527827E3,-5.5885158E0,2.668148E2,-6.953695E1,-5.039833E2,-8.508151E1,-5.4038226E2],"categories":[],"categories_nodes":[],"categories_segments":[],"categories_sizes":[],"default_left":[0,0,0,0,0,0,0,0,0,0,0,0,0],"id":4,"left_children":[1,3,5,7,9,-1,11,-1,-1,-1,-1,-1,-1],"loss_changes":[1.6298506E8,7.4282104E7,7.141845E8,1.2847526E7,4.76524E7,0E0,1.9358664E7,0E0,0E0,0E0,0E0,0E0,0E0],"parents":[2147483647,0,0,1,1,2,2,3,3,4,4,6,6],"right_children":[2,4,6,8,10,-1,12,-1,-1,-1,-1,-1,-1],"split_conditions":[1E1,5E0,1.1E1,3E0,3E0,1.5970018E3,3E0,-5.5885158E0,2.668148E2,-6.953695E1,-5.039833E2,-8.508151E1,-5.4038226E2],"split_indices":[0,0,0,0,6,0,6,0,0,0,0,0,0],"split_type":[0,0,0,0,0,0,0,0,0,0,0,0,0],"sum_hessian":[2.2E1,1.6E1,6E0,6E0,1E1,2E0,4E0,4E0,2E0,5E0,5E0,2E0,2E0],"tree_param":{"num_deleted":"0","num_feature":"7","num_nodes":"13","size_leaf_vector":"1"}},{"base_weights":[1.2492153E2,-1.4311691E3,3.8861528E3,1.0305345E3,-2.8676016E3,1.4905352E3,-3.502597E3,-5.1414065E0,2.4902708E2,-6.3742188E1,-4.6198477E2,-7.940938E1,-5.0435678E2],"categories":[],"categories_nodes":[],"categories_segments":[],"categories_sizes":[],"default_left":[0,0,0,0,0,0,0,0,0,0,0,0,0],"id":5,"left_children":[1,3,5,7,9,-1,11,-1,-1,-1,-1,-1,-1],"loss_changes":[1.4017653E8,6.306837E7,6.2213414E8,1.1183553E7,4.0041264E7,0E0,1.686356E7,0E0,0E0,0E0,0E0,0E0,0E0],"parents":[2147483647,0,0,1,1,2,2,3,3,4,4,6,6],"right_children":[2,4,6,8,10,-1,12,-1,-1,-1,-1,-1,-1],"split_conditions":[1E1,5E0,1.1E1,3E0,3E0,1.4905352E3,3E0,-5.1414065E0,2.4902708E2,-6.3742188E1,-4.6198477E2,-7.940938E1,-5.0435678E2],"split_indices":[0,0,0,0,6,0,6,0,0,0,0,0,0],"split_type":[0,0,0,0,0,0,0,0,0,0,0,0,0],"sum_hessian":[2.2E1,1.6E1,6E0,6E0,1E1,2E0,4E0,4E0,2E0,5E0,5E0,2E0,2E0],"tree_param":{"num_deleted":"0","num_feature":"7","num_nodes":"13","size_leaf_vector":"1"}},{"base_weights":[1.3960004E2,-1.3046315E3,3.6270764E3,5.520642E2,-3.0163682E3,1.3911661E3,-3.2690898E3,9.623214E1,-5.8922394E1,-1.6093124E1,-5.2685315E2,-7.4115364E1,-4.7073297E2],"categories":[],"categories_nodes":[],"categories_segments":[],"categories_sizes":[],"default_left":[0,0,0,0,0,0,0,0,0,0,0,0,0],"id":6,"left_children":[1,3,5,7,9,-1,11,-1,-1,-1,-1,-1,-1],"loss_changes":[1.2057663E8,5.569419E7,5.419479E8,4.781018E6,5.7030304E7,0E0,1.4690032E7,0E0,0E0,0E0,0E0,0E0,0E0],"parents":[2147483647,0,0,1,1,2,2,3,3,4,4,6,6],"right_children":[2,4,6,8,10,-1,12,-1,-1,-1,-1,-1,-1],"split_conditions":[1E1,6E0,1.1E1,5E0,3E0,1.3911661E3,3E0,9.623214E1,-5.8922394E1,-1.6093124E1,-5.2685315E2,-7.4115364E1,-4.7073297E2],"split_indices":[0,0,0,0,6,0,6,0,0,0,0,0,0],"split_type":[0,0,0,0,0,0,0,0,0,0,0,0,0],"sum_hessian":[2.2E1,1.6E1,6E0,8E0,8E0,2E0,4E0,6E0,2E0,4E0,4E0,2E0,2E0],"tree_param":{"num_deleted":"0","num_feature":"7","num_nodes":"13","size_leaf_vector":"1"}},{"base_weights":[1.4045244E2,-1.2039111E3,3.3852708E3,5.0958377E2,-2.783638E3,1.2984216E3,-3.051151E3,1.9921944E2,-5.6375393E1,-4.5267017E2,2.2113895E2,-6.917435E1,-4.393508E2],"categories":[],"categories_nodes":[],"categories_segments":[],"categories_sizes":[],"default_left":[0,0,0,0,0,0,0,0,0,0,0,0,0],"id":7,"left_children":[1,3,5,7,9,-1,11,-1,-1,-1,-1,-1,-1],"loss_changes":[1.0440651E8,4.743501E7,4.7209677E8,1.5445184E7,8.837014E7,0E0,1.2796652E7,0E0,0E0,0E0,0E0,0E0,0E0],"parents":[2147483647,0,0,1,1,2,2,3,3,4,4,6,6],"right_children":[2,4,6,8,10,-1,12,-1,-1,-1,-1,-1,-1],"split_conditions":[1E1,3E0,1.1E1,5E0,1E0,1.2984216E3,3E0,1.9921944E2,-5.6375393E1,-4.5267017E2,2.2113895E2,-6.917435E1,-4.393508E2],"split_indices":[0,6,0,0,2,0,6,0,0,0,0,0,0],"split_type":[0,0,0,0,0,0,0,0,0,0,0,0,0],"sum_hessian":[2.2E1,1.6E1,6E0,8E0,8E0,2E0,4E0,3E0,5E0,6E0,2E0,2E0,2E0],"tree_param":{"num_deleted":"0","num_feature":"7","num_nodes":"13","size_leaf_vector":"1"}},{"base_weights":[1.5689444E2,-1.088737E3,3.159586E3,8.9220087E2,-2.2503577E3,1.2118602E3,-2.8477407E3,1.8427803E2,-2.8142872E1,-5.167747E1,-3.6088812E2,-6.456277E1,-4.100607E2],"categories":[],"categories_nodes":[],"categories_segments":[],"categories_sizes":[],"default_left":[0,0,0,0,0,0,0,0,0,0,0,0,0],"id":8,"left_children":[1,3,5,7,9,-1,11,-1,-1,-1,-1,-1,-1],"loss_changes":[8.946563E7,4.112645E7,4.1124877E8,8.328008E6,2.404126E7,0E0,1.1147296E7,0E0,0E0,0E0,0E0,0E0,0E0],"parents":[2147483647,0,0,1,1,2,2,3,3,4,4,6,6],"right_children":[2,4,6,8,10,-1,12,-1,-1,-1,-1,-1,-1],"split_conditions":[1E1,5E0,1.1E1,3E0,3E0,1.2118602E3,3E0,1.8427803E2,-2.8142872E1,-5.167747E1,-3.6088812E2,-6.456277E1,-4.100607E2],"split_indices":[0,0,0,6,6,0,6,0,0,0,0,0,0],"split_type":[0,0,0,0,0,0,0,0,0,0,0,0,0],"sum_hessian":[2.2E1,1.6E1,6E0,6E0,1E1,2E0,4E0,3E0,3E0,5E0,5E0,2E0,2E0],"tree_param":{"num_deleted":"0","num_feature":"7","num_nodes":"13","size_leaf_vector":"1"}},{"base_weights":[1.6210997E2,-9.94947E2,2.948947E3,4.8610873E2,-2.3654531E3,1.1310696E3,-2.6578914E3,8.2528625E1,-4.673418E1,-6.1614065E0,-4.1962018E2,-6.0258595E1,-3.8272333E2],"categories":[],"categories_nodes":[],"categories_segments":[],"categories_sizes":[],"default_left":[0,0,0,0,0,0,0,0,0,0,0,0,0],"id":9,"left_children":[1,3,5,7,9,-1,11,-1,-1,-1,-1,-1,-1],"loss_changes":[7.709822E7,3.56564E7,3.582434E8,3.2961918E6,3.7701204E7,0E0,9.710536E6,0E0,0E0,0E0,0E0,0E0,0E0],"parents":[2147483647,0,0,1,1,2,2,3,3,4,4,6,6],"right_children":[2,4,6,8,10,-1,12,-1,-1,-1,-1,-1,-1],"split_conditions":[1E1,6E0,1.1E1,5E0,3E0,1.1310696E3,3E0,8.2528625E1,-4.673418E1,-6.1614065E0,-4.1962018E2,-6.0258595E1,-3.8272333E2],"split_indices":[0,0,0,0,6,0,6,0,0,0,0,0,0],"split_type":[0,0,0,0,0,0,0,0,0,0,0,0,0],"sum_hessian":[2.2E1,1.6E1,6E0,8E0,8E0,2E0,4E0,6E0,2E0,4E0,4E0,2E0,2E0],"tree_param":{"num_deleted":"0","num_feature":"7","num_nodes":"13","size_leaf_vector":"1"}},{"base_weights":[1.5886014E2,-9.183921E2,2.7523499E3,4.4147546E2,-2.176216E3,1.0556649E3,-2.4806992E3,-1.5138282E1,9.4603874E1,-5.6684375E0,-3.8605048E2,-5.6241405E1,-3.5720847E2],"categories":[],"categories_nodes":[],"categories_segments":[],"categories_sizes":[],"default_left":[0,0,0,0,0,0,0,0,0,0,0,0,0],"id":10,"left_children":[1,3,5,7,9,-1,11,-1,-1,-1,-1,-1,-1],"loss_changes":[6.678612E7,3.0038802E7,3.1206982E8,2.8354245E6,3.1910304E7,0E0,8.458948E6,0E0,0E0,0E0,0E0,0E0,0E0],"parents":[2147483647,0,0,1,1,2,2,3,3,4,4,6,6],"right_children":[2,4,6,8,10,-1,12,-1,-1,-1,-1,-1,-1],"split_conditions":[1E1,6E0,1.1E1,3E0,3E0,1.0556649E3,3E0,-1.5138282E1,9.4603874E1,-5.6684375E0,-3.8605048E2,-5.6241405E1,-3.5720847E2],"split_indices":[0,0,0,0,6,0,6,0,0,0,0,0,0],"split_type":[0,0,0,0,0,0,0,0,0,0,0,0,0],"sum_hessian":[2.2E1,1.6E1,6E0,8E0,8E0,2E0,4E0,4E0,4E0,4E0,4E0,2E0,2E0],"tree_param":{"num_deleted":"0","num_feature":"7","num_nodes":"13","size_leaf_vector":"1"}},{"base_weights":[1.5732022E2,1.7181764E3,-1.416646E3,9.109424E1,3.9778726E3,-2.3355671E3,2.11864E3,1.6265938E2,-1.1555242E2,7.154707E2,-5.2491924E1,-3.5456406E2,3.6595264E1,2.6358127E2,5.421475E1],"categories":[],"categories_nodes":[],"categories_segments":[],"categories_sizes":[],"default_left":[0,0,0,0,0,0,0,0,0,0,0,0,0,0,0],"id":11,"left_children":[1,3,5,7,9,11,13,-1,-1,-1,-1,-1,-1,-1,-1],"loss_changes":[5.8938948E7,4.375818E7,4.3932016E7,1.7193024E7,7.527875E7,3.3987904E7,1.016956E6,0E0,0E0,0E0,0E0,0E0,0E0,0E0,0E0],"parents":[2147483647,0,0,1,1,2,2,3,3,4,4,5,5,6,6],"right_children":[2,4,6,8,10,12,14,-1,-1,-1,-1,-1,-1,-1,-1],"split_conditions":[3E0,9E0,1E0,5E0,1.1E1,1E0,5E0,1.6265938E2,-1.1555242E2,7.154707E2,-5.2491924E1,-3.5456406E2,3.6595264E1,2.6358127E2,5.421475E1],"split_indices":[6,0,2,0,0,4,0,0,0,0,0,0,0,0,0],"split_type":[0,0,0,0,0,0,0,0,0,0,0,0,0,0,0],"sum_hessian":[2.2E1,1.1E1,1.1E1,7E0,4E0,9E0,2E0,3E0,4E0,2E0,2E0,6E0,3E0,1E0,1E0],"tree_param":{"num_deleted":"0","num_feature":"7","num_nodes":"15","size_leaf_vector":"1"}},{"base_weights":[1.7245406E2,-8.050863E2,2.5218442E3,7.30106E2,-1.7088372E3,9.602184E2,-2.230728E3,-6.251094E0,1.8077657E2,-2.8192154E2,-6.715904E1,-4.8992447E1,-3.227956E2],"categories":[],"categories_nodes":[],"categories_segments":[],"categories_sizes":[],"default_left":[0,0,0,0,0,0,0,0,0,0,0,0,0],"id":12,"left_children":[1,3,5,7,9,-1,11,-1,-1,-1,-1,-1,-1],"loss_changes":[5.4852652E7,2.4833964E7,2.5696864E8,6.092203E6,1.0775738E7,0E0,7.098432E6,0E0,0E0,0E0,0E0,0E0,0E0],"parents":[2147483647,0,0,1,1,2,2,3,3,4,4,6,6],"right_children":[2,4,6,8,10,-1,12,-1,-1,-1,-1,-1,-1],"split_conditions":[1E1,5E0,1.1E1,3E0,7E0,9.602184E2,3E0,-6.251094E0,1.8077657E2,-2.8192154E2,-6.715904E1,-4.8992447E1,-3.227956E2],"split_indices":[0,0,0,0,0,0,6,0,0,0,0,0,0],"split_type":[0,0,0,0,0,0,0,0,0,0,0,0,0],"sum_hessian":[2.2E1,1.6E1,6E0,6E0,1E1,2E0,4E0,4E0,2E0,4E0,6E0,2E0,2E0],"tree_param":{"num_deleted":"0","num_feature":"7","num_nodes":"13","size_leaf_vector":"1"}},{"base_weights":[1.7320287E2,1.5834331E3,-1.2514609E3,-3.3369662E2,3.0004824E3,-2.11568E3,2.0464226E2,1.4625293E2,-2.6174326E2,4.4750333E2,-4.5726303E1,-3.164431E2,2.4855469E1],"categories":[],"categories_nodes":[],"categories_segments":[],"categories_sizes":[],"default_left":[0,0,0,0,0,0,0,0,0,0,0,0,0],"id":13,"left_children":[1,3,5,7,9,11,-1,-1,-1,-1,-1,-1,-1],"loss_changes":[4.8190996E7,3.3601256E7,3.8530696E7,2.8440704E7,3.7736624E7,2.5581472E7,0E0,0E0,0E0,0E0,0E0,0E0,0E0],"parents":[2147483647,0,0,1,1,2,2,3,3,4,4,5,5],"right_children":[2,4,6,8,10,12,-1,-1,-1,-1,-1,-1,-1],"split_conditions":[3E0,7E0,1E0,5E0,1.1E1,1E1,2.0464226E2,1.4625293E2,-2.6174326E2,4.4750333E2,-4.5726303E1,-3.164431E2,2.4855469E1],"split_indices":[6,0,2,0,0,0,0,0,0,0,0,0,0],"split_type":[0,0,0,0,0,0,0,0,0,0,0,0,0],"sum_hessian":[2.2E1,1.1E1,1.1E1,5E0,6E0,9E0,2E0,3E0,2E0,4E0,2E0,6E0,3E0],"tree_param":{"num_deleted":"0","num_feature":"7","num_nodes":"13","size_leaf_vector":"1"}},{"base_weights":[1.6454968E2,-7.212228E2,2.2922043E3,2.1090895E1,-2.5069937E3,8.804585E2,-2.0736648E3,-6.881295E1,2.6145352E2,1.6967318E1,-4.3479962E2,-4.2677868E1,-3.0293295E2],"categories":[],"categories_nodes":[],"categories_segments":[],"categories_sizes":[],"default_left":[0,0,0,0,0,0,0,0,0,0,0,0,0],"id":14,"left_children":[1,3,5,7,9,-1,11,-1,-1,-1,-1,-1,-1],"loss_changes":[4.49994E7,2.2588112E7,2.1728317E8,2.5710344E7,2.5376492E7,0E0,6.576502E6,0E0,0E0,0E0,0E0,0E0,0E0],"parents":[2147483647,0,0,1,1,2,2,3,3,4,4,6,6],"right_children":[2,4,6,8,10,-1,12,-1,-1,-1,-1,-1,-1],"split_conditions":[1E1,8E0,1.1E1,7E0,3E0,8.804585E2,3E0,-6.881295E1,2.6145352E2,1.6967318E1,-4.3479962E2,-4.2677868E1,-3.0293295E2],"split_indices":[0,0,0,0,6,0,6,0,0,0,0,0,0],"split_type":[0,0,0,0,0,0,0,0,0,0,0,0,0],"sum_hessian":[2.2E1,1.6E1,6E0,1.2E1,4E0,2E0,4E0,1E1,2E0,2E0,2E0,2E0,2E0],"tree_param":{"num_deleted":"0","num_feature":"7","num_nodes":"13","size_leaf_vector":"1"}},{"base_weights":[1.615579E2,-6.623474E2,2.139391E3,4.9985504E2,-1.7509557E3,8.2176135E2,-1.9354203E3,7.395073E1,-2.2595182E1,-3.7933313E2,-6.2551533E1,-3.9832684E1,-2.827374E2],"categories":[],"categories_nodes":[],"categories_segments":[],"categories_sizes":[],"default_left":[0,0,0,0,0,0,0,0,0,0,0,0,0],"id":15,"left_children":[1,3,5,7,9,-1,11,-1,-1,-1,-1,-1,-1],"loss_changes":[3.889661E7,2.238334E7,1.8927781E8,1.732564E6,1.8314362E7,0E0,5.728858E6,0E0,0E0,0E0,0E0,0E0,0E0],"parents":[2147483647,0,0,1,1,2,2,3,3,4,4,6,6],"right_children":[2,4,6,8,10,-1,12,-1,-1,-1,-1,-1,-1],"split_conditions":[1E1,6E0,1.1E1,5E0,7E0,8.2176135E2,3E0,7.395073E1,-2.2595182E1,-3.7933313E2,-6.2551533E1,-3.9832684E1,-2.827374E2],"split_indices":[0,0,0,0,0,0,6,0,0,0,0,0,0],"split_type":[0,0,0,0,0,0,0,0,0,0,0,0,0],"sum_hessian":[2.2E1,1.6E1,6E0,8E0,8E0,2E0,4E0,6E0,2E0,2E0,6E0,2E0,2E0],"tree_param":{"num_deleted":"0","num_feature":"7","num_nodes":"13","size_leaf_vector":"1"}},{"base_weights":[1.501267E2,1.3555477E3,-1.0678048E3,9.917651E1,3.094632E3,-1.8629915E3,1.938752E3,1.7709532E2,-7.532412E1,5.529492E2,-3.717721E1,-2.7230298E2,1.0782373E1,2.3087442E2,5.993838E1],"categories":[],"categories_nodes":[],"categories_segments":[],"categories_sizes":[],"default_left":[0,0,0,0,0,0,0,0,0,0,0,0,0,0,0],"id":16,"left_children":[1,3,5,7,9,11,13,-1,-1,-1,-1,-1,-1,-1,-1],"loss_changes":[3.5214224E7,2.591231E7,3.2301156E7,1.2734371E7,4.425676E7,1.724338E7,1.02844E5,0E0,0E0,0E0,0E0,0E0,0E0,0E0,0E0],"parents":[2147483647,0,0,1,1,2,2,3,3,4,4,5,5,6,6],"right_children":[2,4,6,8,10,12,14,-1,-1,-1,-1,-1,-1,-1,-1],"split_conditions":[3E0,9E0,1E0,3E0,1.1E1,1E0,5E0,1.7709532E2,-7.532412E1,5.529492E2,-3.717721E1,-2.7230298E2,1.0782373E1,2.3087442E2,5.993838E1],"split_indices":[6,0,2,0,0,4,0,0,0,0,0,0,0,0,0],"split_type":[0,0,0,0,0,0,0,0,0,0,0,0,0,0,0],"sum_hessian":[2.2E1,1.1E1,1.1E1,7E0,4E0,9E0,2E0,2E0,5E0,2E0,2E0,6E0,3E0,1E0,1E0],"tree_param":{"num_deleted":"0","num_feature":"7","num_nodes":"15","size_leaf_vector":"1"}},{"base_weights":[1.6323743E2,-5.879435E2,1.9642142E3,1.2847461E2,-2.3330417E3,7.481862E2,-1.7392172E3,-5.566598E1,2.5978094E2,4.0853515E0,-3.9292566E2,-3.4698696E1,-2.5517082E2],"categories":[],"categories_nodes":[],"categories_segments":[],"categories_sizes":[],"default_left":[0,0,0,0,0,0,0,0,0,0,0,0,0],"id":17,"left_children":[1,3,5,7,9,-1,11,-1,-1,-1,-1,-1,-1],"loss_changes":[3.2270614E7,2.1553476E7,1.560522E8,2.3439836E7,1.9106756E7,0E0,4.770464E6,0E0,0E0,0E0,0E0,0E0,0E0],"parents":[2147483647,0,0,1,1,2,2,3,3,4,4,6,6],"right_children":[2,4,6,8,10,-1,12,-1,-1,-1,-1,-1,-1],"split_conditions":[1E1,8E0,1.1E1,7E0,3E0,7.481862E2,3E0,-5.566598E1,2.5978094E2,4.0853515E0,-3.9292566E2,-3.4698696E1,-2.5517082E2],"split_indices":[0,0,0,0,6,0,6,0,0,0,0,0,0],"split_type":[0,0,0,0,0,0,0,0,0,0,0,0,0],"sum_hessian":[2.2E1,1.6E1,6E0,1.2E1,4E0,2E0,4E0,1E1,2E0,2E0,2E0,2E0,2E0],"tree_param":{"num_deleted":"0","num_feature":"7","num_nodes":"13","size_leaf_vector":"1"}},{"base_weights":[1.5880843E2,-5.4001587E2,1.8332662E3,1.3132767E2,-2.1775059E3,6.9830707E2,-1.6232695E3,-5.0605507E1,2.4246219E2,3.8129559E0,-3.667306E2,-3.2385418E1,-2.381595E2],"categories":[],"categories_nodes":[],"categories_segments":[],"categories_sizes":[],"default_left":[0,0,0,0,0,0,0,0,0,0,0,0,0],"id":18,"left_children":[1,3,5,7,9,-1,11,-1,-1,-1,-1,-1,-1],"loss_changes":[2.7903484E7,1.8974378E7,1.3593878E8,2.022917E7,1.66441E7,0E0,4.15561E6,0E0,0E0,0E0,0E0,0E0,0E0],"parents":[2147483647,0,0,1,1,2,2,3,3,4,4,6,6],"right_children":[2,4,6,8,10,-1,12,-1,-1,-1,-1,-1,-1],"split_conditions":[1E1,8E0,1.1E1,7E0,3E0,6.9830707E2,3E0,-5.0605507E1,2.4246219E2,3.8129559E0,-3.667306E2,-3.2385418E1,-2.381595E2],"split_indices":[0,0,0,0,6,0,6,0,0,0,0,0,0],"split_type":[0,0,0,0,0,0,0,0,0,0,0,0,0],"sum_hessian":[2.2E1,1.6E1,6E0,1.2E1,4E0,2E0,4E0,1E1,2E0,2E0,2E0,2E0,2E0],"tree_param":{"num_deleted":"0","num_feature":"7","num_nodes":"13","size_leaf_vector":"1"}},{"base_weights":[1.540884E2,1.163204E3,-8.6786786E2,2.4008789E2,2.949414E3,-1.6152399E3,1.9126616E2,1.723737E2,-4.3006E1,6.352225E2,-3.022643E1,-2.3368338E2,5.1359377E0],"categories":[],"categories_nodes":[],"categories_segments":[],"categories_sizes":[],"default_left":[0,0,0,0,0,0,0,0,0,0,0,0,0],"id":19,"left_children":[1,3,5,7,9,11,-1,-1,-1,-1,-1,-1,-1],"loss_changes":[2.4728762E7,1.9078432E7,2.802648E7,9.689688E6,4.6179428E7,1.21461E7,0E0,0E0,0E0,0E0,0E0,0E0,0E0],"parents":[2147483647,0,0,1,1,2,2,3,3,4,4,5,5],"right_children":[2,4,6,8,10,12,-1,-1,-1,-1,-1,-1,-1],"split_conditions":[3E0,1E1,1E0,3E0,1.1E1,1E0,1.9126616E2,1.723737E2,-4.3006E1,6.352225E2,-3.022643E1,-2.3368338E2,5.1359377E0],"split_indices":[6,0,2,0,0,4,0,0,0,0,0,0,0],"split_type":[0,0,0,0,0,0,0,0,0,0,0,0,0],"sum_hessian":[2.2E1,1.1E1,1.1E1,8E0,3E0,9E0,2E0,2E0,6E0,1E0,2E0,6E0,3E0],"tree_param":{"num_deleted":"0","num_feature":"7","num_nodes":"13","size_leaf_vector":"1"}},{"base_weights":[1.689876E2,-4.552507E2,1.6608538E3,5.3630054E2,-1.3962185E3,6.3040784E2,-1.4572516E3,7.6852844E1,-1.8433138E1,-3.261489E2,-3.9735714E1,-2.1998875E2,-2.2886524E1],"categories":[],"categories_nodes":[],"categories_segments":[],"categories_sizes":[],"default_left":[0,0,0,0,0,0,0,0,0,0,0,0,0],"id":20,"left_children":[1,3,5,7,9,-1,11,-1,-1,-1,-1,-1,-1],"loss_changes":[2.2175544E7,1.6610096E7,1.10533064E8,1.6478212E6,1.5472342E7,0E0,4.057741E6,0E0,0E0,0E0,0E0,0E0,0E0],"parents":[2147483647,0,0,1,1,2,2,3,3,4,4,6,6],"right_children":[2,4,6,8,10,-1,12,-1,-1,-1,-1,-1,-1],"split_conditions":[1E1,6E0,1.1E1,5E0,7E0,6.3040784E2,1.2E1,7.6852844E1,-1.8433138E1,-3.261489E2,-3.9735714E1,-2.1998875E2,-2.2886524E1],"split_indices":[0,0,0,0,0,0,0,0,0,0,0,0,0],"split_type":[0,0,0,0,0,0,0,0,0,0,0,0,0],"sum_hessian":[2.2E1,1.6E1,6E0,8E0,8E0,2E0,4E0,6E0,2E0,2E0,6E0,2E0,2E0],"tree_param":{"num_deleted":"0","num_feature":"7","num_nodes":"13","size_leaf_vector":"1"}},{"base_weights":[1.5557031E2,1.0952225E3,-7.970461E2,1.1260474E2,2.4483665E3,-1.4861588E3,1.7656783E3,1.5575859E2,-6.2865334E1,4.2817657E2,-2.0115496E1,-2.1253067E2,3.8896486E-1,2.1123828E2,5.3613476E1],"categories":[],"categories_nodes":[],"categories_segments":[],"categories_sizes":[],"default_left":[0,0,0,0,0,0,0,0,0,0,0,0,0,0,0],"id":21,"left_children":[1,3,5,7,9,11,13,-1,-1,-1,-1,-1,-1,-1,-1],"loss_changes":[2.146089E7,1.567978E7,2.381615E7,9.548013E6,2.5149446E7,9.531878E6,1.46342E5,0E0,0E0,0E0,0E0,0E0,0E0,0E0,0E0],"parents":[2147483647,0,0,1,1,2,2,3,3,4,4,5,5,6,6],"right_children":[2,4,6,8,10,12,14,-1,-1,-1,-1,-1,-1,-1,-1],"split_conditions":[3E0,9E0,1E0,3E0,1.1E1,1E1,5E0,1.5575859E2,-6.2865334E1,4.2817657E2,-2.0115496E1,-2.1253067E2,3.8896486E-1,2.1123828E2,5.3613476E1],"split_indices":[6,0,2,0,0,0,0,0,0,0,0,0,0,0,0],"split_type":[0,0,0,0,0,0,0,0,0,0,0,0,0,0,0],"sum_hessian":[2.2E1,1.1E1,1.1E1,7E0,4E0,9E0,2E0,2E0,5E0,2E0,2E0,6E0,3E0,1E0,1E0],"tree_param":{"num_deleted":"0","num_feature":"7","num_nodes":"15","size_leaf_vector":"1"}},{"base_weights":[1.6408603E2,1.0274469E3,-7.129487E2,2.091059E2,2.6118525E3,-1.3587568E3,1.6773945E3,1.4537474E2,-3.5418415E1,5.505322E2,-1.877448E1,-1.9455237E2,7.7744144E-1,2.0067638E2,5.093281E1],"categories":[],"categories_nodes":[],"categories_segments":[],"categories_sizes":[],"default_left":[0,0,0,0,0,0,0,0,0,0,0,0,0,0,0],"id":22,"left_children":[1,3,5,7,9,11,13,-1,-1,-1,-1,-1,-1,-1,-1],"loss_changes":[1.814806E7,1.5012855E7,2.080361E7,6.824742E6,3.3435798E7,8.033478E6,1.32074E5,0E0,0E0,0E0,0E0,0E0,0E0,0E0,0E0],"parents":[2147483647,0,0,1,1,2,2,3,3,4,4,5,5,6,6],"right_children":[2,4,6,8,10,12,14,-1,-1,-1,-1,-1,-1,-1,-1],"split_conditions":[3E0,1E1,1E0,3E0,1.1E1,1E0,5E0,1.4537474E2,-3.5418415E1,5.505322E2,-1.877448E1,-1.9455237E2,7.7744144E-1,2.0067638E2,5.093281E1],"split_indices":[6,0,2,0,0,4,0,0,0,0,0,0,0,0,0],"split_type":[0,0,0,0,0,0,0,0,0,0,0,0,0,0,0],"sum_hessian":[2.2E1,1.1E1,1.1E1,8E0,3E0,9E0,2E0,2E0,6E0,1E0,2E0,6E0,3E0,1E0,1E0],"tree_param":{"num_deleted":"0","num_feature":"7","num_nodes":"15","size_leaf_vector":"1"}},{"base_weights":[1.7809265E2,-3.5562866E2,1.4488312E3,2.5524144E2,-1.8727653E3,5.557182E2,-1.3059457E3,-3.9384853E1,2.5501575E2,-7.4088544E-1,-3.1138666E2,-2.0406537E2,-1.3592254E1],"categories":[],"categories_nodes":[],"categories_segments":[],"categories_sizes":[],"default_left":[0,0,0,0,0,0,0,0,0,0,0,0,0],"id":23,"left_children":[1,3,5,7,9,-1,11,-1,-1,-1,-1,-1,-1],"loss_changes":[1.6114311E7,1.6233154E7,8.648051E7,2.0369268E7,1.155241E7,0E0,4.020755E6,0E0,0E0,0E0,0E0,0E0,0E0],"parents":[2147483647,0,0,1,1,2,2,3,3,4,4,6,6],"right_children":[2,4,6,8,10,-1,12,-1,-1,-1,-1,-1,-1],"split_conditions":[1E1,8E0,1.1E1,7E0,3E0,5.557182E2,1.2E1,-3.9384853E1,2.5501575E2,-7.4088544E-1,-3.1138666E2,-2.0406537E2,-1.3592254E1],"split_indices":[0,0,0,0,6,0,0,0,0,0,0,0,0],"split_type":[0,0,0,0,0,0,0,0,0,0,0,0,0],"sum_hessian":[2.2E1,1.6E1,6E0,1.2E1,4E0,2E0,4E0,1E1,2E0,2E0,2E0,2E0,2E0],"tree_param":{"num_deleted":"0","num_feature":"7","num_nodes":"13","size_leaf_vector":"1"}},{"base_weights":[1.7078635E2,9.4528955E2,-6.1794904E2,1.9412305E2,2.3990918E3,-1.2274734E3,1.6197819E3,1.3830885E2,-3.4316547E1,4.9521973E2,-1.0267578E1,-1.7518904E2,-2.8754884E-1,1.9261192E2,5.0355373E1],"categories":[],"categories_nodes":[],"categories_segments":[],"categories_sizes":[],"default_left":[0,0,0,0,0,0,0,0,0,0,0,0,0,0,0],"id":24,"left_children":[1,3,5,7,9,11,13,-1,-1,-1,-1,-1,-1,-1,-1],"loss_changes":[1.4634337E7,1.2638852E7,1.8355658E7,6.2239855E6,2.6057578E7,6.416962E6,5.59225E4,0E0,0E0,0E0,0E0,0E0,0E0,0E0,0E0],"parents":[2147483647,0,0,1,1,2,2,3,3,4,4,5,5,6,6],"right_children":[2,4,6,8,10,12,14,-1,-1,-1,-1,-1,-1,-1,-1],"split_conditions":[3E0,1E1,1E0,3E0,1.1E1,1E0,5E0,1.3830885E2,-3.4316547E1,4.9521973E2,-1.0267578E1,-1.7518904E2,-2.8754884E-1,1.9261192E2,5.0355373E1],"split_indices":[6,0,2,0,0,4,0,0,0,0,0,0,0,0,0],"split_type":[0,0,0,0,0,0,0,0,0,0,0,0,0,0,0],"sum_hessian":[2.2E1,1.1E1,1.1E1,8E0,3E0,9E0,2E0,2E0,6E0,1E0,2E0,6E0,3E0,1E0,1E0],"tree_param":{"num_deleted":"0","num_feature":"7","num_nodes":"15","size_leaf_vector":"1"}},{"base_weights":[1.8224847E2,-2.9265063E2,1.3095393E3,2.7080002E2,-1.6990922E3,5.0217267E2,-1.1796809E3,-3.4814064E1,2.4499825E2,1.596289E0,-2.8477832E2,-1.9010924E2,-6.504232E0],"categories":[],"categories_nodes":[],"categories_segments":[],"categories_sizes":[],"default_left":[0,0,0,0,0,0,0,0,0,0,0,0,0],"id":25,"left_children":[1,3,5,7,9,-1,11,-1,-1,-1,-1,-1,-1],"loss_changes":[1.2696274E7,1.3931941E7,7.060718E7,1.8387138E7,9.895801E6,0E0,3.8969145E6,0E0,0E0,0E0,0E0,0E0,0E0],"parents":[2147483647,0,0,1,1,2,2,3,3,4,4,6,6],"right_children":[2,4,6,8,10,-1,12,-1,-1,-1,-1,-1,-1],"split_conditions":[1E1,8E0,1.1E1,7E0,3E0,5.0217267E2,1.2E1,-3.4814064E1,2.4499825E2,1.596289E0,-2.8477832E2,-1.9010924E2,-6.504232E0],"split_indices":[0,0,0,0,6,0,0,0,0,0,0,0,0],"split_type":[0,0,0,0,0,0,0,0,0,0,0,0,0],"sum_hessian":[2.2E1,1.6E1,6E0,1.2E1,4E0,2E0,4E0,1E1,2E0,2E0,2E0,2E0,2E0],"tree_param":{"num_deleted":"0","num_feature":"7","num_nodes":"13","size_leaf_vector":"1"}},{"base_weights":[1.7413477E2,8.681989E2,-5.344406E2,1.4290686E3,-6.108076E2,-1.1099291E3,1.5620013E2,1.9722255E2,-3.1465366E1,-2.1001367E2,5.8568096E1,-1.5801953E2,-9.4809574E-1],"categories":[],"categories_nodes":[],"categories_segments":[],"categories_sizes":[],"default_left":[0,0,0,0,0,0,0,0,0,0,0,0,0],"id":26,"left_children":[1,3,5,7,9,11,-1,-1,-1,-1,-1,-1,-1],"loss_changes":[1.1775326E7,1.0827246E7,1.6211449E7,9.144598E6,8.357871E6,5.160056E6,0E0,0E0,0E0,0E0,0E0,0E0,0E0],"parents":[2147483647,0,0,1,1,2,2,3,3,4,4,5,5],"right_children":[2,4,6,8,10,12,-1,-1,-1,-1,-1,-1,-1],"split_conditions":[3E0,1E0,1E0,1E0,7E0,1E0,1.5620013E2,1.9722255E2,-3.1465366E1,-2.1001367E2,5.8568096E1,-1.5801953E2,-9.4809574E-1],"split_indices":[6,3,2,2,0,4,0,0,0,0,0,0,0],"split_type":[0,0,0,0,0,0,0,0,0,0,0,0,0],"sum_hessian":[2.2E1,1.1E1,1.1E1,8E0,3E0,9E0,2E0,6E0,2E0,1E0,2E0,6E0,3E0],"tree_param":{"num_deleted":"0","num_feature":"7","num_nodes":"13","size_leaf_vector":"1"}},{"base_weights":[1.5722325E2,4.9246268E2,-1.1481312E3,-2.6516302E2,4.621521E2,-1.839778E3,-7.3774086E1,2.7062696E1,-1.6051843E2,-2.4785362E2,-2.8113087E1,2.235874E2,-2.3465352E2],"categories":[],"categories_nodes":[],"categories_segments":[],"categories_sizes":[],"default_left":[0,0,0,0,0,0,0,0,0,0,0,0,0],"id":27,"left_children":[1,3,5,7,-1,9,11,-1,-1,-1,-1,-1,-1],"loss_changes":[1.0630358E7,6.0662788E7,3.57965E6,1.2639896E7,0E0,2.290003E6,2.0994392E7,0E0,0E0,0E0,0E0,0E0,0E0],"parents":[2147483647,0,0,1,1,2,2,3,3,5,5,6,6],"right_children":[2,4,6,8,-1,10,12,-1,-1,-1,-1,-1,-1],"split_conditions":[1.1E1,1E1,1.2E1,8E0,4.621521E2,3E0,3E0,2.7062696E1,-1.6051843E2,-2.4785362E2,-2.8113087E1,2.235874E2,-2.3465352E2],"split_indices":[0,0,0,0,0,6,6,0,0,0,0,0,0],"split_type":[0,0,0,0,0,0,0,0,0,0,0,0,0],"sum_hessian":[2.2E1,1.8E1,4E0,1.6E1,2E0,2E0,2E0,1.2E1,4E0,1E0,1E0,1E0,1E0],"tree_param":{"num_deleted":"0","num_feature":"7","num_nodes":"13","size_leaf_vector":"1"}},{"base_weights":[1.4331241E2,4.6051624E2,-1.0907246E3,-2.4649701E2,4.3134195E2,-1.7477891E3,-7.008529E1,2.456462E1,-1.4767699E2,-2.3546094E2,-2.6707422E1,2.12408E2,-2.229208E2],"categories":[],"categories_nodes":[],"categories_segments":[],"categories_sizes":[],"default_left":[0,0,0,0,0,0,0,0,0,0,0,0,0],"id":28,"left_children":[1,3,5,7,-1,9,11,-1,-1,-1,-1,-1,-1],"loss_changes":[9.505446E6,5.282026E7,3.230635E6,1.0655761E7,0E0,2.066728E6,1.8947432E7,0E0,0E0,0E0,0E0,0E0,0E0],"parents":[2147483647,0,0,1,1,2,2,3,3,5,5,6,6],"right_children":[2,4,6,8,-1,10,12,-1,-1,-1,-1,-1,-1],"split_conditions":[1.1E1,1E1,1.2E1,8E0,4.3134195E2,3E0,3E0,2.456462E1,-1.4767699E2,-2.3546094E2,-2.6707422E1,2.12408E2,-2.229208E2],"split_indices":[0,0,0,0,0,6,6,0,0,0,0,0,0],"split_type":[0,0,0,0,0,0,0,0,0,0,0,0,0],"sum_hessian":[2.2E1,1.8E1,4E0,1.6E1,2E0,2E0,2E0,1.2E1,4E0,1E0,1E0,1E0,1E0],"tree_param":{"num_deleted":"0","num_feature":"7","num_nodes":"13","size_leaf_vector":"1"}},{"base_weights":[1.3052625E2,7.376086E2,-4.8743326E2,-2.636006E2,1.4904152E3,-1.0119549E3,1.4234498E3,9.655108E1,-1.8145488E2,2.1741824E2,-1.4600196E1,4.5398926E1,-1.22528076E2,1.7433047E2,3.918701E1],"categories":[],"categories_nodes":[],"categories_segments":[],"categories_sizes":[],"default_left":[0,0,0,0,0,0,0,0,0,0,0,0,0,0,0],"id":29,"left_children":[1,3,5,7,9,11,13,-1,-1,-1,-1,-1,-1,-1,-1],"loss_changes":[8.988038E6,9.437478E6,1.3468062E7,1.3189695E7,8.149934E6,3.683503E6,3.067185E5,0E0,0E0,0E0,0E0,0E0,0E0,0E0,0E0],"parents":[2147483647,0,0,1,1,2,2,3,3,4,4,5,5,6,6],"right_children":[2,4,6,8,10,12,14,-1,-1,-1,-1,-1,-1,-1,-1],"split_conditions":[3E0,7E0,1E0,5E0,1.1E1,2E0,5E0,9.655108E1,-1.8145488E2,2.1741824E2,-1.4600196E1,4.5398926E1,-1.22528076E2,1.7433047E2,3.918701E1],"split_indices":[6,0,2,0,0,0,0,0,0,0,0,0,0,0,0],"split_type":[0,0,0,0,0,0,0,0,0,0,0,0,0,0,0],"sum_hessian":[2.2E1,1.1E1,1.1E1,5E0,6E0,9E0,2E0,3E0,2E0,4E0,2E0,1E0,8E0,1E0,1E0],"tree_param":{"num_deleted":"0","num_feature":"7","num_nodes":"15","size_leaf_vector":"1"}},{"base_weights":[1.2852998E2,-2.4234122E2,1.0108558E3,2.2024008E2,-1.3965844E3,3.9942267E2,-9.813379E2,-3.5437588E1,2.253752E2,-9.847005E-1,-2.3177937E2,-1.6146909E2,-2.0872397E0],"categories":[],"categories_nodes":[],"categories_segments":[],"categories_sizes":[],"default_left":[0,0,0,0,0,0,0,0,0,0,0,0,0],"id":30,"left_children":[1,3,5,7,9,-1,11,-1,-1,-1,-1,-1,-1],"loss_changes":[7.7712435E6,9.384416E6,4.5523852E7,1.5989024E7,6.364553E6,0E0,3.007865E6,0E0,0E0,0E0,0E0,0E0,0E0],"parents":[2147483647,0,0,1,1,2,2,3,3,4,4,6,6],"right_children":[2,4,6,8,10,-1,12,-1,-1,-1,-1,-1,-1],"split_conditions":[1E1,8E0,1.1E1,7E0,3E0,3.9942267E2,1.2E1,-3.5437588E1,2.253752E2,-9.847005E-1,-2.3177937E2,-1.6146909E2,-2.0872397E0],"split_indices":[0,0,0,0,6,0,0,0,0,0,0,0,0],"split_type":[0,0,0,0,0,0,0,0,0,0,0,0,0],"sum_hessian":[2.2E1,1.6E1,6E0,1.2E1,4E0,2E0,4E0,1E1,2E0,2E0,2E0,2E0,2E0],"tree_param":{"num_deleted":"0","num_feature":"7","num_nodes":"13","size_leaf_vector":"1"}},{"base_weights":[1.2407006E2,6.50167E2,-4.1236606E2,1.1544166E3,-6.469365E2,-9.0760974E2,1.3759017E3,1.6026083E2,-2.7616928E1,-1.9124971E2,4.1241604E1,-3.470254E1,-1.66173E2,1.6738574E2,3.899951E1],"categories":[],"categories_nodes":[],"categories_segments":[],"categories_sizes":[],"default_left":[0,0,0,0,0,0,0,0,0,0,0,0,0,0,0],"id":31,"left_children":[1,3,5,7,9,11,13,-1,-1,-1,-1,-1,-1,-1,-1],"loss_changes":[6.759107E6,8.595602E6,1.1876323E7,6.213182E6,6.1514435E6,3.650817E6,2.284735E5,0E0,0E0,0E0,0E0,0E0,0E0,0E0,0E0],"parents":[2147483647,0,0,1,1,2,2,3,3,4,4,5,5,6,6],"right_children":[2,4,6,8,10,12,14,-1,-1,-1,-1,-1,-1,-1,-1],"split_conditions":[3E0,1E0,1E0,1E0,7E0,1E0,5E0,1.6026083E2,-2.7616928E1,-1.9124971E2,4.1241604E1,-3.470254E1,-1.66173E2,1.6738574E2,3.899951E1],"split_indices":[6,3,2,2,0,1,0,0,0,0,0,0,0,0,0],"split_type":[0,0,0,0,0,0,0,0,0,0,0,0,0,0,0],"sum_hessian":[2.2E1,1.1E1,1.1E1,8E0,3E0,9E0,2E0,6E0,2E0,1E0,2E0,6E0,3E0,1E0,1E0],"tree_param":{"num_deleted":"0","num_feature":"7","num_nodes":"15","size_leaf_vector":"1"}},{"base_weights":[1.1114759E2,3.818746E2,-9.3984454E2,-2.236859E2,3.6860925E2,-1.5488978E3,-1.7509766E1,2.1898708E1,-1.3298985E2,-2.2289757E2,-9.43711E0,1.9460889E2,-1.9723535E2],"categories":[],"categories_nodes":[],"categories_segments":[],"categories_sizes":[],"default_left":[0,0,0,0,0,0,0,0,0,0,0,0,0],"id":32,"left_children":[1,3,5,7,-1,9,11,-1,-1,-1,-1,-1,-1],"loss_changes":[6.903138E6,3.8841696E7,2.7816345E6,8.615968E6,0E0,2.7572225E6,1.5353961E7,0E0,0E0,0E0,0E0,0E0,0E0],"parents":[2147483647,0,0,1,1,2,2,3,3,5,5,6,6],"right_children":[2,4,6,8,-1,10,12,-1,-1,-1,-1,-1,-1],"split_conditions":[1.1E1,1E1,1.2E1,8E0,3.6860925E2,3E0,3E0,2.1898708E1,-1.3298985E2,-2.2289757E2,-9.43711E0,1.9460889E2,-1.9723535E2],"split_indices":[0,0,0,0,0,6,6,0,0,0,0,0,0],"split_type":[0,0,0,0,0,0,0,0,0,0,0,0,0],"sum_hessian":[2.2E1,1.8E1,4E0,1.6E1,2E0,2E0,2E0,1.2E1,4E0,1E0,1E0,1E0,1E0],"tree_param":{"num_deleted":"0","num_feature":"7","num_nodes":"13","size_leaf_vector":"1"}},{"base_weights":[1.0101367E2,3.5724084E2,-8.9285236E2,-2.0785191E2,3.4403528E2,-1.4714525E3,-1.6634766E1,6.044347E1,-7.05866E1,-2.1175264E2,-8.965235E0,1.8487842E2,-1.8737364E2],"categories":[],"categories_nodes":[],"categories_segments":[],"categories_sizes":[],"default_left":[0,0,0,0,0,0,0,0,0,0,0,0,0],"id":33,"left_children":[1,3,5,7,-1,9,11,-1,-1,-1,-1,-1,-1],"loss_changes":[6.1760395E6,3.3817724E7,2.510421E6,7.303662E6,0E0,2.4883935E6,1.3856952E7,0E0,0E0,0E0,0E0,0E0,0E0],"parents":[2147483647,0,0,1,1,2,2,3,3,5,5,6,6],"right_children":[2,4,6,8,-1,10,12,-1,-1,-1,-1,-1,-1],"split_conditions":[1.1E1,1E1,1.2E1,5E0,3.4403528E2,3E0,3E0,6.044347E1,-7.05866E1,-2.1175264E2,-8.965235E0,1.8487842E2,-1.8737364E2],"split_indices":[0,0,0,0,0,6,6,0,0,0,0,0,0],"split_type":[0,0,0,0,0,0,0,0,0,0,0,0,0],"sum_hessian":[2.2E1,1.8E1,4E0,1.6E1,2E0,2E0,2E0,6E0,1E1,1E0,1E0,1E0,1E0],"tree_param":{"num_deleted":"0","num_feature":"7","num_nodes":"13","size_leaf_vector":"1"}},{"base_weights":[9.572376E1,3.3908932E2,-8.4821014E2,-1.8766418E2,3.210996E2,-1.3978802E3,-1.5803386E1,2.0345373E1,-1.1670379E2,-2.0116504E2,-8.516993E0,1.7563448E2,-1.7800499E2],"categories":[],"categories_nodes":[],"categories_segments":[],"categories_sizes":[],"default_left":[0,0,0,0,0,0,0,0,0,0,0,0,0],"id":34,"left_children":[1,3,5,7,-1,9,11,-1,-1,-1,-1,-1,-1],"loss_changes":[5.5712025E6,2.9345542E7,2.265654E6,6.749298E6,0E0,2.245775E6,1.2505899E7,0E0,0E0,0E0,0E0,0E0,0E0],"parents":[2147483647,0,0,1,1,2,2,3,3,5,5,6,6],"right_children":[2,4,6,8,-1,10,12,-1,-1,-1,-1,-1,-1],"split_conditions":[1.1E1,1E1,1.2E1,8E0,3.210996E2,3E0,3E0,2.0345373E1,-1.1670379E2,-2.0116504E2,-8.516993E0,1.7563448E2,-1.7800499E2],"split_indices":[0,0,0,0,0,6,6,0,0,0,0,0,0],"split_type":[0,0,0,0,0,0,0,0,0,0,0,0,0],"sum_hessian":[2.2E1,1.8E1,4E0,1.6E1,2E0,2E0,2E0,1.2E1,4E0,1E0,1E0,1E0,1E0],"tree_param":{"num_deleted":"0","num_feature":"7","num_nodes":"13","size_leaf_vector":"1"}},{"base_weights":[8.670321E1,3.1700903E2,-8.057996E2,-1.7456572E2,2.9969296E2,-1.3279863E3,-1.50130205E1,1.8467382E1,-1.07367546E2,-1.9110684E2,-8.091113E0,1.6685274E2,-1.6910469E2],"categories":[],"categories_nodes":[],"categories_segments":[],"categories_sizes":[],"default_left":[0,0,0,0,0,0,0,0,0,0,0,0,0],"id":35,"left_children":[1,3,5,7,-1,9,11,-1,-1,-1,-1,-1,-1],"loss_changes":[4.9830635E6,2.5553406E7,2.044754E6,5.689208E6,0E0,2.0268145E6,1.128657E7,0E0,0E0,0E0,0E0,0E0,0E0],"parents":[2147483647,0,0,1,1,2,2,3,3,5,5,6,6],"right_children":[2,4,6,8,-1,10,12,-1,-1,-1,-1,-1,-1],"split_conditions":[1.1E1,1E1,1.2E1,8E0,2.9969296E2,3E0,3E0,1.8467382E1,-1.07367546E2,-1.9110684E2,-8.091113E0,1.6685274E2,-1.6910469E2],"split_indices":[0,0,0,0,0,6,6,0,0,0,0,0,0],"split_type":[0,0,0,0,0,0,0,0,0,0,0,0,0],"sum_hessian":[2.2E1,1.8E1,4E0,1.6E1,2E0,2E0,2E0,1.2E1,4E0,1E0,1E0,1E0,1E0],"tree_param":{"num_deleted":"0","num_feature":"7","num_nodes":"13","size_leaf_vector":"1"}},{"base_weights":[7.84392E1,5.2478253E2,-3.7444077E2,-2.91486E2,1.1494724E3,-8.3033264E2,1.2700123E3,7.5558205E1,-1.5904147E2,1.7014265E2,-1.5360872E1,-1.5514224E2,-2.9966238E1,1.529586E2,3.7543262E1],"categories":[],"categories_nodes":[],"categories_segments":[],"categories_sizes":[],"default_left":[0,0,0,0,0,0,0,0,0,0,0,0,0,0,0],"id":36,"left_children":[1,3,5,7,9,11,13,-1,-1,-1,-1,-1,-1,-1,-1],"loss_changes":[4.8457185E6,6.454031E6,1.0050846E7,9.362088E6,5.296042E6,3.3617055E6,1.223715E5,0E0,0E0,0E0,0E0,0E0,0E0,0E0,0E0],"parents":[2147483647,0,0,1,1,2,2,3,3,4,4,5,5,6,6],"right_children":[2,4,6,8,10,12,14,-1,-1,-1,-1,-1,-1,-1,-1],"split_conditions":[3E0,7E0,1E0,5E0,1.1E1,7E0,5E0,7.5558205E1,-1.5904147E2,1.7014265E2,-1.5360872E1,-1.5514224E2,-2.9966238E1,1.529586E2,3.7543262E1],"split_indices":[6,0,2,0,0,0,0,0,0,0,0,0,0,0,0],"split_type":[0,0,0,0,0,0,0,0,0,0,0,0,0,0,0],"sum_hessian":[2.2E1,1.1E1,1.1E1,5E0,6E0,9E0,2E0,3E0,2E0,4E0,2E0,3E0,6E0,1E0,1E0],"tree_param":{"num_deleted":"0","num_feature":"7","num_nodes":"15","size_leaf_vector":"1"}},{"base_weights":[7.392952E1,2.861721E2,-7.473781E2,-1.6552689E2,2.750409E2,-1.2464772E3,8.470052E-1,1.8502344E1,-1.0438523E2,-1.807834E2,-6.188184E0,1.5927812E2,-1.5915108E2],"categories":[],"categories_nodes":[],"categories_segments":[],"categories_sizes":[],"default_left":[0,0,0,0,0,0,0,0,0,0,0,0,0],"id":37,"left_children":[1,3,5,7,-1,9,11,-1,-1,-1,-1,-1,-1],"loss_changes":[4.223157E6,2.1604038E7,1.868248E6,5.4273905E6,0E0,1.8830695E6,1.0139715E7,0E0,0E0,0E0,0E0,0E0,0E0],"parents":[2147483647,0,0,1,1,2,2,3,3,5,5,6,6],"right_children":[2,4,6,8,-1,10,12,-1,-1,-1,-1,-1,-1],"split_conditions":[1.1E1,1E1,1.2E1,8E0,2.750409E2,3E0,3E0,1.8502344E1,-1.0438523E2,-1.807834E2,-6.188184E0,1.5927812E2,-1.5915108E2],"split_indices":[0,0,0,0,0,6,6,0,0,0,0,0,0],"split_type":[0,0,0,0,0,0,0,0,0,0,0,0,0],"sum_hessian":[2.2E1,1.8E1,4E0,1.6E1,2E0,2E0,2E0,1.2E1,4E0,1E0,1E0,1E0,1E0],"tree_param":{"num_deleted":"0","num_feature":"7","num_nodes":"13","size_leaf_vector":"1"}},{"base_weights":[6.663706E1,4.6526334E2,-3.3754233E2,-2.916709E2,1.0475979E3,-7.633039E2,1.1941771E3,6.850352E1,-1.4967221E2,1.5483571E2,-1.36199875E1,5.3983887E1,-9.680797E1,1.4438554E2,3.4741016E1],"categories":[],"categories_nodes":[],"categories_segments":[],"categories_sizes":[],"default_left":[0,0,0,0,0,0,0,0,0,0,0,0,0,0,0],"id":38,"left_children":[1,3,5,7,9,11,13,-1,-1,-1,-1,-1,-1,-1,-1],"loss_changes":[3.862726E6,5.595022E6,8.737287E6,8.0871915E6,4.3604675E6,3.1911275E6,1.326485E5,0E0,0E0,0E0,0E0,0E0,0E0,0E0,0E0],"parents":[2147483647,0,0,1,1,2,2,3,3,4,4,5,5,6,6],"right_children":[2,4,6,8,10,12,14,-1,-1,-1,-1,-1,-1,-1,-1],"split_conditions":[3E0,7E0,1E0,5E0,1.1E1,2E0,5E0,6.850352E1,-1.4967221E2,1.5483571E2,-1.36199875E1,5.3983887E1,-9.680797E1,1.4438554E2,3.4741016E1],"split_indices":[6,0,2,0,0,0,0,0,0,0,0,0,0,0,0],"split_type":[0,0,0,0,0,0,0,0,0,0,0,0,0,0,0],"sum_hessian":[2.2E1,1.1E1,1.1E1,5E0,6E0,9E0,2E0,3E0,2E0,4E0,2E0,1E0,8E0,1E0,1E0],"tree_param":{"num_deleted":"0","num_feature":"7","num_nodes":"15","size_leaf_vector":"1"}},{"base_weights":[6.851036E1,-3.5535672E2,4.218971E2,3.2788608E2,-2.2866328E2,2.029502E2,-5.4894886E1,-1.6903973E1,4.940134E1,8.182324E1,-9.188731E1],"categories":[],"categories_nodes":[],"categories_segments":[],"categories_sizes":[],"default_left":[0,0,0,0,0,0,0,0,0,0,0],"id":39,"left_children":[1,3,5,7,-1,-1,9,-1,-1,-1,-1],"loss_changes":[3.5950708E6,1.526459E7,1.007582E7,8.2648444E5,0E0,0E0,9.049844E6,0E0,0E0,0E0,0E0],"parents":[2147483647,0,0,1,1,2,2,3,3,6,6],"right_children":[2,4,6,8,-1,-1,10,-1,-1,-1,-1],"split_conditions":[7E0,6E0,8E0,2E0,-2.2866328E2,2.029502E2,3E0,-1.6903973E1,4.940134E1,8.182324E1,-9.188731E1],"split_indices":[0,0,0,0,0,0,6,0,0,0,0],"split_type":[0,0,0,0,0,0,0,0,0,0,0],"sum_hessian":[2.2E1,1E1,1.2E1,8E0,2E0,2E0,1E1,2E0,6E0,5E0,5E0],"tree_param":{"num_deleted":"0","num_feature":"7","num_nodes":"11","size_leaf_vector":"1"}},{"base_weights":[6.1516388E1,2.486285E2,-6.6181287E2,-1.7230836E2,2.5510612E2,-1.1439902E3,4.096875E1,1.5141602E1,-9.795301E1,-1.751545E2,3.555957E0,1.479041E2,-1.4175879E2],"categories":[],"categories_nodes":[],"categories_segments":[],"categories_sizes":[],"default_left":[0,0,0,0,0,0,0,0,0,0,0,0,0],"id":40,"left_children":[1,3,5,7,-1,9,11,-1,-1,-1,-1,-1,-1],"loss_changes":[3.27745E6,1.8853966E7,1.7411948E6,4.5907115E6,0E0,2.212207E6,8.3892E6,0E0,0E0,0E0,0E0,0E0,0E0],"parents":[2147483647,0,0,1,1,2,2,3,3,5,5,6,6],"right_children":[2,4,6,8,-1,10,12,-1,-1,-1,-1,-1,-1],"split_conditions":[1.1E1,1E1,1.2E1,8E0,2.5510612E2,3E0,3E0,1.5141602E1,-9.795301E1,-1.751545E2,3.555957E0,1.479041E2,-1.4175879E2],"split_indices":[0,0,0,0,0,6,6,0,0,0,0,0,0],"split_type":[0,0,0,0,0,0,0,0,0,0,0,0,0],"sum_hessian":[2.2E1,1.8E1,4E0,1.6E1,2E0,2E0,2E0,1.2E1,4E0,1E0,1E0,1E0,1E0],"tree_param":{"num_deleted":"0","num_feature":"7","num_nodes":"13","size_leaf_vector":"1"}},{"base_weights":[5.5662533E1,-3.5141904E2,3.9583444E2,2.8524957E2,-2.1442851E2,1.8841081E2,-4.6043324E1,-1.6786459E1,4.386914E1,7.44721E1,-8.291338E1],"categories":[],"categories_nodes":[],"categories_segments":[],"categories_sizes":[],"default_left":[0,0,0,0,0,0,0,0,0,0,0],"id":41,"left_children":[1,3,5,7,-1,-1,9,-1,-1,-1,-1],"loss_changes":[3.3240912E6,1.3167733E7,8.636006E6,6.993807E5,0E0,0E0,7.429113E6,0E0,0E0,0E0,0E0],"parents":[2147483647,0,0,1,1,2,2,3,3,6,6],"right_children":[2,4,6,8,-1,-1,10,-1,-1,-1,-1],"split_conditions":[7E0,6E0,8E0,2E0,-2.1442851E2,1.8841081E2,3E0,-1.6786459E1,4.386914E1,7.44721E1,-8.291338E1],"split_indices":[0,0,0,0,0,0,6,0,0,0,0],"split_type":[0,0,0,0,0,0,0,0,0,0,0],"sum_hessian":[2.2E1,1E1,1.2E1,8E0,2E0,2E0,1E1,2E0,6E0,5E0,5E0],"tree_param":{"num_deleted":"0","num_feature":"7","num_nodes":"11","size_leaf_vector":"1"}},{"base_weights":[4.9775646E1,-3.333086E2,3.7009494E2,2.5973395E2,-2.0013335E2,1.7585014E2,-4.220632E1,-1.5667383E1,4.010896E1,-8.9779106E1,5.749551E1],"categories":[],"categories_nodes":[],"categories_segments":[],"categories_sizes":[],"default_left":[0,0,0,0,0,0,0,0,0,0,0],"id":42,"left_children":[1,3,5,7,-1,-1,9,-1,-1,-1,-1],"loss_changes":[2.9456692E6,1.1401119E7,7.5159625E6,5.925945E5,0E0,0E0,6.324562E6,0E0,0E0,0E0,0E0],"parents":[2147483647,0,0,1,1,2,2,3,3,6,6],"right_children":[2,4,6,8,-1,-1,10,-1,-1,-1,-1],"split_conditions":[7E0,6E0,8E0,2E0,-2.0013335E2,1.7585014E2,1E1,-1.5667383E1,4.010896E1,-8.9779106E1,5.749551E1],"split_indices":[0,0,0,0,0,0,0,0,0,0,0],"split_type":[0,0,0,0,0,0,0,0,0,0,0],"sum_hessian":[2.2E1,1E1,1.2E1,8E0,2E0,2E0,1E1,2E0,6E0,4E0,6E0],"tree_param":{"num_deleted":"0","num_feature":"7","num_nodes":"11","size_leaf_vector":"1"}},{"base_weights":[4.3400986E1,2.2920714E2,-6.713426E2,-1.577345E2,2.345474E2,-1.122308E3,3.4036458E0,1.1141181E1,-8.2596794E1,-1.7299522E2,4.6490235E0,1.3391055E2,-1.3340001E2],"categories":[],"categories_nodes":[],"categories_segments":[],"categories_sizes":[],"default_left":[0,0,0,0,0,0,0,0,0,0,0,0,0],"id":43,"left_children":[1,3,5,7,-1,9,11,-1,-1,-1,-1,-1,-1],"loss_changes":[3.2083628E6,1.5928524E7,1.5252558E6,3.1495165E6,0E0,2.2110662E6,7.145484E6,0E0,0E0,0E0,0E0,0E0,0E0],"parents":[2147483647,0,0,1,1,2,2,3,3,5,5,6,6],"right_children":[2,4,6,8,-1,10,12,-1,-1,-1,-1,-1,-1],"split_conditions":[1.1E1,1E1,1.2E1,8E0,2.345474E2,3E0,3E0,1.1141181E1,-8.2596794E1,-1.7299522E2,4.6490235E0,1.3391055E2,-1.3340001E2],"split_indices":[0,0,0,0,0,6,6,0,0,0,0,0,0],"split_type":[0,0,0,0,0,0,0,0,0,0,0,0,0],"sum_hessian":[2.2E1,1.8E1,4E0,1.6E1,2E0,2E0,2E0,1.2E1,4E0,1E0,1E0,1E0,1E0],"tree_param":{"num_deleted":"0","num_feature":"7","num_nodes":"13","size_leaf_vector":"1"}},{"base_weights":[3.8855213E1,2.1487079E2,-6.37775E2,-1.4616371E2,2.1891093E2,-1.066192E3,3.2337239E0,3.650809E1,-4.582136E1,-1.6434541E2,4.4166017E0,1.2721504E2,-1.2672998E2],"categories":[],"categories_nodes":[],"categories_segments":[],"categories_sizes":[],"default_left":[0,0,0,0,0,0,0,0,0,0,0,0,0],"id":44,"left_children":[1,3,5,7,-1,9,11,-1,-1,-1,-1,-1,-1],"loss_changes":[2.8762808E6,1.3862565E7,1.3765432E6,2.87936E6,0E0,1.9954878E6,6.4487995E6,0E0,0E0,0E0,0E0,0E0,0E0],"parents":[2147483647,0,0,1,1,2,2,3,3,5,5,6,6],"right_children":[2,4,6,8,-1,10,12,-1,-1,-1,-1,-1,-1],"split_conditions":[1.1E1,1E1,1.2E1,5E0,2.1891093E2,3E0,3E0,3.650809E1,-4.582136E1,-1.6434541E2,4.4166017E0,1.2721504E2,-1.2672998E2],"split_indices":[0,0,0,0,0,6,6,0,0,0,0,0,0],"split_type":[0,0,0,0,0,0,0,0,0,0,0,0,0],"sum_hessian":[2.2E1,1.8E1,4E0,1.6E1,2E0,2E0,2E0,6E0,1E1,1E0,1E0,1E0,1E0],"tree_param":{"num_deleted":"0","num_feature":"7","num_nodes":"13","size_leaf_vector":"1"}},{"base_weights":[3.715073E1,-3.293285E2,3.4439078E2,2.1241754E2,-1.8447905E2,1.6643881E2,-4.6916725E1,-1.7799414E1,3.4939144E1,6.637715E1,-7.4978546E1],"categories":[],"categories_nodes":[],"categories_segments":[],"categories_sizes":[],"default_left":[0,0,0,0,0,0,0,0,0,0,0],"id":45,"left_children":[1,3,5,7,-1,-1,9,-1,-1,-1,-1],"loss_changes":[2.703151E6,9.422816E6,6.7929105E6,5.434757E5,0E0,0E0,5.992412E6,0E0,0E0,0E0,0E0],"parents":[2147483647,0,0,1,1,2,2,3,3,6,6],"right_children":[2,4,6,8,-1,-1,10,-1,-1,-1,-1],"split_conditions":[7E0,6E0,8E0,2E0,-1.8447905E2,1.6643881E2,3E0,-1.7799414E1,3.4939144E1,6.637715E1,-7.4978546E1],"split_indices":[0,0,0,0,0,0,6,0,0,0,0],"split_type":[0,0,0,0,0,0,0,0,0,0,0],"sum_hessian":[2.2E1,1E1,1.2E1,8E0,2E0,2E0,1E1,2E0,6E0,5E0,5E0],"tree_param":{"num_deleted":"0","num_feature":"7","num_nodes":"11","size_leaf_vector":"1"}},{"base_weights":[3.3022587E1,1.9851306E2,-6.024457E2,-1.3919772E2,2.0460365E2,-1.01001495E3,5.9388022E0,9.481536E0,-7.197922E1,-1.5944698E2,7.9447265E0,1.17535355E2,-1.1664453E2],"categories":[],"categories_nodes":[],"categories_segments":[],"categories_sizes":[],"default_left":[0,0,0,0,0,0,0,0,0,0,0,0,0],"id":46,"left_children":[1,3,5,7,-1,9,11,-1,-1,-1,-1,-1,-1],"loss_changes":[2.5383642E6,1.2139447E7,1.2457922E6,2.377981E6,0E0,2.0369002E6,5.483995E6,0E0,0E0,0E0,0E0,0E0,0E0],"parents":[2147483647,0,0,1,1,2,2,3,3,5,5,6,6],"right_children":[2,4,6,8,-1,10,12,-1,-1,-1,-1,-1,-1],"split_conditions":[1.1E1,1E1,1.2E1,8E0,2.0460365E2,3E0,3E0,9.481536E0,-7.197922E1,-1.5944698E2,7.9447265E0,1.17535355E2,-1.1664453E2],"split_indices":[0,0,0,0,0,6,6,0,0,0,0,0,0],"split_type":[0,0,0,0,0,0,0,0,0,0,0,0,0],"sum_hessian":[2.2E1,1.8E1,4E0,1.6E1,2E0,2E0,2E0,1.2E1,4E0,1E0,1E0,1E0,1E0],"tree_param":{"num_deleted":"0","num_feature":"7","num_nodes":"13","size_leaf_vector":"1"}},{"base_weights":[2.9350288E1,-3.2022763E2,3.2288928E2,1.8465277E2,-1.7281264E2,1.547108E2,-4.034215E1,-1.7244856E1,3.1131723E1,6.0533398E1,-6.792947E1],"categories":[],"categories_nodes":[],"categories_segments":[],"categories_sizes":[],"default_left":[0,0,0,0,0,0,0,0,0,0,0],"id":47,"left_children":[1,3,5,7,-1,-1,9,-1,-1,-1,-1],"loss_changes":[2.4635375E6,8.138128E6,5.843185E6,4.6077466E5,0E0,0E0,4.9493195E6,0E0,0E0,0E0,0E0],"parents":[2147483647,0,0,1,1,2,2,3,3,6,6],"right_children":[2,4,6,8,-1,-1,10,-1,-1,-1,-1],"split_conditions":[7E0,6E0,8E0,2E0,-1.7281264E2,1.547108E2,3E0,-1.7244856E1,3.1131723E1,6.0533398E1,-6.792947E1],"split_indices":[0,0,0,0,0,0,6,0,0,0,0],"split_type":[0,0,0,0,0,0,0,0,0,0,0],"sum_hessian":[2.2E1,1E1,1.2E1,8E0,2E0,2E0,1E1,2E0,6E0,5E0,5E0],"tree_param":{"num_deleted":"0","num_feature":"7","num_nodes":"11","size_leaf_vector":"1"}},{"base_weights":[2.5910242E1,1.8119798E2,-5.6936523E2,-1.349136E2,1.9120976E2,-9.570488E2,8.1067705E0,2.979202E1,-3.980884E1,-1.5450127E2,1.0943946E1,1.08631836E2,-1.07415825E2],"categories":[],"categories_nodes":[],"categories_segments":[],"categories_sizes":[],"default_left":[0,0,0,0,0,0,0,0,0,0,0,0,0],"id":48,"left_children":[1,3,5,7,-1,9,11,-1,-1,-1,-1,-1,-1],"loss_changes":[2.2292648E6,1.065396E7,1.1271406E6,2.055085E6,0E0,2.0502552E6,4.66761E6,0E0,0E0,0E0,0E0,0E0,0E0],"parents":[2147483647,0,0,1,1,2,2,3,3,5,5,6,6],"right_children":[2,4,6,8,-1,10,12,-1,-1,-1,-1,-1,-1],"split_conditions":[1.1E1,1E1,1.2E1,5E0,1.9120976E2,3E0,3E0,2.979202E1,-3.980884E1,-1.5450127E2,1.0943946E1,1.08631836E2,-1.07415825E2],"split_indices":[0,0,0,0,0,6,6,0,0,0,0,0,0],"split_type":[0,0,0,0,0,0,0,0,0,0,0,0,0],"sum_hessian":[2.2E1,1.8E1,4E0,1.6E1,2E0,2E0,2E0,6E0,1E1,1E0,1E0,1E0,1E0],"tree_param":{"num_deleted":"0","num_feature":"7","num_nodes":"13","size_leaf_vector":"1"}},{"base_weights":[2.5007982E1,-3.0442755E2,3.0183743E2,1.5671484E2,-1.586379E2,1.4705064E2,-4.4330257E1,-1.808138E1,2.7898214E1,5.439346E1,-6.252067E1],"categories":[],"categories_nodes":[],"categories_segments":[],"categories_sizes":[],"default_left":[0,0,0,0,0,0,0,0,0,0,0],"id":49,"left_children":[1,3,5,7,-1,-1,9,-1,-1,-1,-1],"loss_changes":[2.1894292E6,6.7513925E6,5.324409E6,4.2186225E5,0E0,0E0,4.0988725E6,0E0,0E0,0E0,0E0],"parents":[2147483647,0,0,1,1,2,2,3,3,6,6],"right_children":[2,4,6,8,-1,-1,10,-1,-1,-1,-1],"split_conditions":[7E0,6E0,8E0,2E0,-1.586379E2,1.4705064E2,3E0,-1.808138E1,2.7898214E1,5.439346E1,-6.252067E1],"split_indices":[0,0,0,0,0,0,6,0,0,0,0],"split_type":[0,0,0,0,0,0,0,0,0,0,0],"sum_hessian":[2.2E1,1E1,1.2E1,8E0,2E0,2E0,1E1,2E0,6E0,5E0,5E0],"tree_param":{"num_deleted":"0","num_feature":"7","num_nodes":"11","size_leaf_vector":"1"}}]},"name":"gbtree"},"learner_model_param":{"base_score":"3.2681818E4","boost_from_average":"1","num_class":"0","num_feature":"7","num_target":"1"},"objective":{"name":"reg:squarederror","reg_loss_param":{"scale_pos_weight":"1"}}},"version":[2,1,4]}